{"learner":{"attributes":{"best_iteration":"72","best_ntree_limit":"73","best_score":"0.49165941556520176","scikit_learn":"{\"use_label_encoder\": false, \"n_estimators\": 1000, \"objective\": \"multi:softprob\", \"max_depth\": 10, \"max_leaves\": null, \"max_bin\": null, \"grow_policy\": null, \"learning_rate\": null, \"verbosity\": null, \"booster\": null, \"tree_method\": \"gpu_hist\", \"gamma\": null, \"min_child_weight\": null, \"max_delta_step\": null, \"subsample\": 0.75, \"sampling_method\": null, \"colsample_bytree\": null, \"colsample_bylevel\": null, \"colsample_bynode\": null, \"reg_alpha\": null, \"reg_lambda\": null, \"scale_pos_weight\": null, \"base_score\": null, \"missing\": NaN, \"num_parallel_tree\": null, \"random_state\": null, \"n_jobs\": 20, \"monotone_constraints\": null, \"interaction_constraints\": null, \"importance_type\": null, \"gpu_id\": 0, \"validate_parameters\": null, \"predictor\": null, \"enable_categorical\": false, \"max_cat_to_onehot\": null, \"eval_metric\": null, \"early_stopping_rounds\": 10, \"callbacks\": null, \"kwargs\": {\"eta\": 0.075}, \"classes_\": [0, 1, 2, 3, 4, 5, 6, 7, 8, 9, 10, 11, 12, 13, 14, 15, 16, 17, 18, 19, 20, 21, 22, 23, 24, 25, 26, 27, 28, 29, 30, 31, 32, 33, 34, 35, 36, 37, 38, 39, 40, 41, 42, 43, 44, 45, 46, 47, 48, 49, 50, 51, 52, 53, 54, 55, 56, 57, 58, 59, 60, 61, 62, 63, 64, 65, 66, 67, 68, 69, 70, 71, 72, 73, 74, 75, 76, 77, 78, 79, 80, 81, 82, 83, 84, 85, 86, 87, 88, 89, 90, 91, 92, 93, 94, 95, 96, 97, 98, 99, 100, 101, 102, 103, 104, 105, 106, 107, 108, 109, 110, 111, 112, 113, 114, 115, 116, 117, 118, 119, 120, 121, 122, 123, 124, 125, 126, 127, 128, 129, 130, 131, 132, 133, 134, 135, 136, 137, 138, 139, 140, 141, 142, 143, 144, 145, 146, 147, 148, 149, 150, 151, 152, 153, 154, 155, 156, 157, 158, 159, 160, 161, 162, 163], \"n_classes_\": 164, \"evals_result_\": {\"validation_0\": {\"mlogloss\": [1.2606208661403726, 1.191161354091039, 1.135039099381608, 1.0859340759684302, 1.0419148351519607, 1.0021265652865903, 0.9659482495663552, 0.9327854016093279, 0.9022685715206149, 0.873907279716964, 0.8477260517422013, 0.8231874031544922, 0.8004819654990947, 0.7794343659807023, 0.7597942248934324, 0.7414642094287323, 0.7244282621240608, 0.7085593799235169, 0.6935691901814772, 0.6795775759341991, 0.6665415403554793, 0.6542644847373555, 0.642708249479393, 0.6320013438718565, 0.6219416346325717, 0.6125725147203425, 0.6037910235815553, 0.5955405471700712, 0.587798540312972, 0.5806239095826972, 0.5739172858920962, 0.5675810273872574, 0.5617717984700096, 0.5562963875340428, 0.5512181599602773, 0.5464462488668448, 0.5420514063235258, 0.537945373510311, 0.5340900038928316, 0.5304856688027462, 0.5271938707048648, 0.524056944351789, 0.5211539194819113, 0.5185198724149422, 0.5161016042721167, 0.5138398377068585, 0.5117355906898936, 0.5097962626795688, 0.5079509770321509, 0.5062660986726634, 0.504725187779735, 0.5032950731635942, 0.5019777160157284, 0.500737412111245, 0.49961880769184525, 0.49856280125660285, 0.4976815227554529, 0.4968712514378511, 0.49615629839242625, 0.49553579442326856, 0.49491656567345543, 0.4943362623108301, 0.4938846704032043, 0.4935112849987508, 0.4931731920569279, 0.4927732817119089, 0.4924782573840342, 0.4922173358352908, 0.49203220713473594, 0.49187383792902895, 0.4917810105732589, 0.49174945850499685, 0.49165941556520176, 0.49167084727602783, 0.4916606335493508, 0.49172966976376786, 0.4918173745642229, 0.49181577183573866, 0.49192684258891256, 0.4920385702271004, 0.49208614344592894, 0.4922677334830132, 0.4925595473048949]}}, \"_estimator_type\": \"classifier\"}"},"feature_names":[],"feature_types":[],"gradient_booster":{"model":{"gbtree_model_param":{"num_parallel_tree":"1","num_trees":"13612","size_leaf_vector":"0"},"tree_info":[0,1,2,3,4,5,6,7,8,9,10,11,12,13,14,15,16,17,18,19,20,21,22,23,24,25,26,27,28,29,30,31,32,33,34,35,36,37,38,39,40,41,42,43,44,45,46,47,48,49,50,51,52,53,54,55,56,57,58,59,60,61,62,63,64,65,66,67,68,69,70,71,72,73,74,75,76,77,78,79,80,81,82,83,84,85,86,87,88,89,90,91,92,93,94,95,96,97,98,99,100,101,102,103,104,105,106,107,108,109,110,111,112,113,114,115,116,117,118,119,120,121,122,123,124,125,126,127,128,129,130,131,132,133,134,135,136,137,138,139,140,141,142,143,144,145,146,147,148,149,150,151,152,153,154,155,156,157,158,159,160,161,162,163,0,1,2,3,4,5,6,7,8,9,10,11,12,13,14,15,16,17,18,19,20,21,22,23,24,25,26,27,28,29,30,31,32,33,34,35,36,37,38,39,40,41,42,43,44,45,46,47,48,49,50,51,52,53,54,55,56,57,58,59,60,61,62,63,64,65,66,67,68,69,70,71,72,73,74,75,76,77,78,79,80,81,82,83,84,85,86,87,88,89,90,91,92,93,94,95,96,97,98,99,100,101,102,103,104,105,106,107,108,109,110,111,112,113,114,115,116,117,118,119,120,121,122,123,124,125,126,127,128,129,130,131,132,133,134,135,136,137,138,139,140,141,142,143,144,145,146,147,148,149,150,151,152,153,154,155,156,157,158,159,160,161,162,163,0,1,2,3,4,5,6,7,8,9,10,11,12,13,14,15,16,17,18,19,20,21,22,23,24,25,26,27,28,29,30,31,32,33,34,35,36,37,38,39,40,41,42,43,44,45,46,47,48,49,50,51,52,53,54,55,56,57,58,59,60,61,62,63,64,65,66,67,68,69,70,71,72,73,74,75,76,77,78,79,80,81,82,83,84,85,86,87,88,89,90,91,92,93,94,95,96,97,98,99,100,101,102,103,104,105,106,107,108,109,110,111,112,113,114,115,116,117,118,119,120,121,122,123,124,125,126,127,128,129,130,131,132,133,134,135,136,137,138,139,140,141,142,143,144,145,146,147,148,149,150,151,152,153,154,155,156,157,158,159,160,161,162,163,0,1,2,3,4,5,6,7,8,9,10,11,12,13,14,15,16,17,18,19,20,21,22,23,24,25,26,27,28,29,30,31,32,33,34,35,36,37,38,39,40,41,42,43,44,45,46,47,48,49,50,51,52,53,54,55,56,57,58,59,60,61,62,63,64,65,66,67,68,69,70,71,72,73,74,75,76,77,78,79,80,81,82,83,84,85,86,87,88,89,90,91,92,93,94,95,96,97,98,99,100,101,102,103,104,105,106,107,108,109,110,111,112,113,114,115,116,117,118,119,120,121,122,123,124,125,126,127,128,129,130,131,132,133,134,135,136,137,138,139,140,141,142,143,144,145,146,147,148,149,150,151,152,153,154,155,156,157,158,159,160,161,162,163,0,1,2,3,4,5,6,7,8,9,10,11,12,13,14,15,16,17,18,19,20,21,22,23,24,25,26,27,28,29,30,31,32,33,34,35,36,37,38,39,40,41,42,43,44,45,46,47,48,49,50,51,52,53,54,55,56,57,58,59,60,61,62,63,64,65,66,67,68,69,70,71,72,73,74,75,76,77,78,79,80,81,82,83,84,85,86,87,88,89,90,91,92,93,94,95,96,97,98,99,100,101,102,103,104,105,106,107,108,109,110,111,112,113,114,115,116,117,118,119,120,121,122,123,124,125,126,127,128,129,130,131,132,133,134,135,136,137,138,139,140,141,142,143,144,145,146,147,148,149,150,151,152,153,154,155,156,157,158,159,160,161,162,163,0,1,2,3,4,5,6,7,8,9,10,11,12,13,14,15,16,17,18,19,20,21,22,23,24,25,26,27,28,29,30,31,32,33,34,35,36,37,38,39,40,41,42,43,44,45,46,47,48,49,50,51,52,53,54,55,56,57,58,59,60,61,62,63,64,65,66,67,68,69,70,71,72,73,74,75,76,77,78,79,80,81,82,83,84,85,86,87,88,89,90,91,92,93,94,95,96,97,98,99,100,101,102,103,104,105,106,107,108,109,110,111,112,113,114,115,116,117,118,119,120,121,122,123,124,125,126,127,128,129,130,131,132,133,134,135,136,137,138,139,140,141,142,143,144,145,146,147,148,149,150,151,152,153,154,155,156,157,158,159,160,161,162,163,0,1,2,3,4,5,6,7,8,9,10,11,12,13,14,15,16,17,18,19,20,21,22,23,24,25,26,27,28,29,30,31,32,33,34,35,36,37,38,39,40,41,42,43,44,45,46,47,48,49,50,51,52,53,54,55,56,57,58,59,60,61,62,63,64,65,66,67,68,69,70,71,72,73,74,75,76,77,78,79,80,81,82,83,84,85,86,87,88,89,90,91,92,93,94,95,96,97,98,99,100,101,102,103,104,105,106,107,108,109,110,111,112,113,114,115,116,117,118,119,120,121,122,123,124,125,126,127,128,129,130,131,132,133,134,135,136,137,138,139,140,141,142,143,144,145,146,147,148,149,150,151,152,153,154,155,156,157,158,159,160,161,162,163,0,1,2,3,4,5,6,7,8,9,10,11,12,13,14,15,16,17,18,19,20,21,22,23,24,25,26,27,28,29,30,31,32,33,34,35,36,37,38,39,40,41,42,43,44,45,46,47,48,49,50,51,52,53,54,55,56,57,58,59,60,61,62,63,64,65,66,67,68,69,70,71,72,73,74,75,76,77,78,79,80,81,82,83,84,85,86,87,88,89,90,91,92,93,94,95,96,97,98,99,100,101,102,103,104,105,106,107,108,109,110,111,112,113,114,115,116,117,118,119,120,121,122,123,124,125,126,127,128,129,130,131,132,133,134,135,136,137,138,139,140,141,142,143,144,145,146,147,148,149,150,151,152,153,154,155,156,157,158,159,160,161,162,163,0,1,2,3,4,5,6,7,8,9,10,11,12,13,14,15,16,17,18,19,20,21,22,23,24,25,26,27,28,29,30,31,32,33,34,35,36,37,38,39,40,41,42,43,44,45,46,47,48,49,50,51,52,53,54,55,56,57,58,59,60,61,62,63,64,65,66,67,68,69,70,71,72,73,74,75,76,77,78,79,80,81,82,83,84,85,86,87,88,89,90,91,92,93,94,95,96,97,98,99,100,101,102,103,104,105,106,107,108,109,110,111,112,113,114,115,116,117,118,119,120,121,122,123,124,125,126,127,128,129,130,131,132,133,134,135,136,137,138,139,140,141,142,143,144,145,146,147,148,149,150,151,152,153,154,155,156,157,158,159,160,161,162,163,0,1,2,3,4,5,6,7,8,9,10,11,12,13,14,15,16,17,18,19,20,21,22,23,24,25,26,27,28,29,30,31,32,33,34,35,36,37,38,39,40,41,42,43,44,45,46,47,48,49,50,51,52,53,54,55,56,57,58,59,60,61,62,63,64,65,66,67,68,69,70,71,72,73,74,75,76,77,78,79,80,81,82,83,84,85,86,87,88,89,90,91,92,93,94,95,96,97,98,99,100,101,102,103,104,105,106,107,108,109,110,111,112,113,114,115,116,117,118,119,120,121,122,123,124,125,126,127,128,129,130,131,132,133,134,135,136,137,138,139,140,141,142,143,144,145,146,147,148,149,150,151,152,153,154,155,156,157,158,159,160,161,162,163,0,1,2,3,4,5,6,7,8,9,10,11,12,13,14,15,16,17,18,19,20,21,22,23,24,25,26,27,28,29,30,31,32,33,34,35,36,37,38,39,40,41,42,43,44,45,46,47,48,49,50,51,52,53,54,55,56,57,58,59,60,61,62,63,64,65,66,67,68,69,70,71,72,73,74,75,76,77,78,79,80,81,82,83,84,85,86,87,88,89,90,91,92,93,94,95,96,97,98,99,100,101,102,103,104,105,106,107,108,109,110,111,112,113,114,115,116,117,118,119,120,121,122,123,124,125,126,127,128,129,130,131,132,133,134,135,136,137,138,139,140,141,142,143,144,145,146,147,148,149,150,151,152,153,154,155,156,157,158,159,160,161,162,163,0,1,2,3,4,5,6,7,8,9,10,11,12,13,14,15,16,17,18,19,20,21,22,23,24,25,26,27,28,29,30,31,32,33,34,35,36,37,38,39,40,41,42,43,44,45,46,47,48,49,50,51,52,53,54,55,56,57,58,59,60,61,62,63,64,65,66,67,68,69,70,71,72,73,74,75,76,77,78,79,80,81,82,83,84,85,86,87,88,89,90,91,92,93,94,95,96,97,98,99,100,101,102,103,104,105,106,107,108,109,110,111,112,113,114,115,116,117,118,119,120,121,122,123,124,125,126,127,128,129,130,131,132,133,134,135,136,137,138,139,140,141,142,143,144,145,146,147,148,149,150,151,152,153,154,155,156,157,158,159,160,161,162,163,0,1,2,3,4,5,6,7,8,9,10,11,12,13,14,15,16,17,18,19,20,21,22,23,24,25,26,27,28,29,30,31,32,33,34,35,36,37,38,39,40,41,42,43,44,45,46,47,48,49,50,51,52,53,54,55,56,57,58,59,60,61,62,63,64,65,66,67,68,69,70,71,72,73,74,75,76,77,78,79,80,81,82,83,84,85,86,87,88,89,90,91,92,93,94,95,96,97,98,99,100,101,102,103,104,105,106,107,108,109,110,111,112,113,114,115,116,117,118,119,120,121,122,123,124,125,126,127,128,129,130,131,132,133,134,135,136,137,138,139,140,141,142,143,144,145,146,147,148,149,150,151,152,153,154,155,156,157,158,159,160,161,162,163,0,1,2,3,4,5,6,7,8,9,10,11,12,13,14,15,16,17,18,19,20,21,22,23,24,25,26,27,28,29,30,31,32,33,34,35,36,37,38,39,40,41,42,43,44,45,46,47,48,49,50,51,52,53,54,55,56,57,58,59,60,61,62,63,64,65,66,67,68,69,70,71,72,73,74,75,76,77,78,79,80,81,82,83,84,85,86,87,88,89,90,91,92,93,94,95,96,97,98,99,100,101,102,103,104,105,106,107,108,109,110,111,112,113,114,115,116,117,118,119,120,121,122,123,124,125,126,127,128,129,130,131,132,133,134,135,136,137,138,139,140,141,142,143,144,145,146,147,148,149,150,151,152,153,154,155,156,157,158,159,160,161,162,163,0,1,2,3,4,5,6,7,8,9,10,11,12,13,14,15,16,17,18,19,20,21,22,23,24,25,26,27,28,29,30,31,32,33,34,35,36,37,38,39,40,41,42,43,44,45,46,47,48,49,50,51,52,53,54,55,56,57,58,59,60,61,62,63,64,65,66,67,68,69,70,71,72,73,74,75,76,77,78,79,80,81,82,83,84,85,86,87,88,89,90,91,92,93,94,95,96,97,98,99,100,101,102,103,104,105,106,107,108,109,110,111,112,113,114,115,116,117,118,119,120,121,122,123,124,125,126,127,128,129,130,131,132,133,134,135,136,137,138,139,140,141,142,143,144,145,146,147,148,149,150,151,152,153,154,155,156,157,158,159,160,161,162,163,0,1,2,3,4,5,6,7,8,9,10,11,12,13,14,15,16,17,18,19,20,21,22,23,24,25,26,27,28,29,30,31,32,33,34,35,36,37,38,39,40,41,42,43,44,45,46,47,48,49,50,51,52,53,54,55,56,57,58,59,60,61,62,63,64,65,66,67,68,69,70,71,72,73,74,75,76,77,78,79,80,81,82,83,84,85,86,87,88,89,90,91,92,93,94,95,96,97,98,99,100,101,102,103,104,105,106,107,108,109,110,111,112,113,114,115,116,117,118,119,120,121,122,123,124,125,126,127,128,129,130,131,132,133,134,135,136,137,138,139,140,141,142,143,144,145,146,147,148,149,150,151,152,153,154,155,156,157,158,159,160,161,162,163,0,1,2,3,4,5,6,7,8,9,10,11,12,13,14,15,16,17,18,19,20,21,22,23,24,25,26,27,28,29,30,31,32,33,34,35,36,37,38,39,40,41,42,43,44,45,46,47,48,49,50,51,52,53,54,55,56,57,58,59,60,61,62,63,64,65,66,67,68,69,70,71,72,73,74,75,76,77,78,79,80,81,82,83,84,85,86,87,88,89,90,91,92,93,94,95,96,97,98,99,100,101,102,103,104,105,106,107,108,109,110,111,112,113,114,115,116,117,118,119,120,121,122,123,124,125,126,127,128,129,130,131,132,133,134,135,136,137,138,139,140,141,142,143,144,145,146,147,148,149,150,151,152,153,154,155,156,157,158,159,160,161,162,163,0,1,2,3,4,5,6,7,8,9,10,11,12,13,14,15,16,17,18,19,20,21,22,23,24,25,26,27,28,29,30,31,32,33,34,35,36,37,38,39,40,41,42,43,44,45,46,47,48,49,50,51,52,53,54,55,56,57,58,59,60,61,62,63,64,65,66,67,68,69,70,71,72,73,74,75,76,77,78,79,80,81,82,83,84,85,86,87,88,89,90,91,92,93,94,95,96,97,98,99,100,101,102,103,104,105,106,107,108,109,110,111,112,113,114,115,116,117,118,119,120,121,122,123,124,125,126,127,128,129,130,131,132,133,134,135,136,137,138,139,140,141,142,143,144,145,146,147,148,149,150,151,152,153,154,155,156,157,158,159,160,161,162,163,0,1,2,3,4,5,6,7,8,9,10,11,12,13,14,15,16,17,18,19,20,21,22,23,24,25,26,27,28,29,30,31,32,33,34,35,36,37,38,39,40,41,42,43,44,45,46,47,48,49,50,51,52,53,54,55,56,57,58,59,60,61,62,63,64,65,66,67,68,69,70,71,72,73,74,75,76,77,78,79,80,81,82,83,84,85,86,87,88,89,90,91,92,93,94,95,96,97,98,99,100,101,102,103,104,105,106,107,108,109,110,111,112,113,114,115,116,117,118,119,120,121,122,123,124,125,126,127,128,129,130,131,132,133,134,135,136,137,138,139,140,141,142,143,144,145,146,147,148,149,150,151,152,153,154,155,156,157,158,159,160,161,162,163,0,1,2,3,4,5,6,7,8,9,10,11,12,13,14,15,16,17,18,19,20,21,22,23,24,25,26,27,28,29,30,31,32,33,34,35,36,37,38,39,40,41,42,43,44,45,46,47,48,49,50,51,52,53,54,55,56,57,58,59,60,61,62,63,64,65,66,67,68,69,70,71,72,73,74,75,76,77,78,79,80,81,82,83,84,85,86,87,88,89,90,91,92,93,94,95,96,97,98,99,100,101,102,103,104,105,106,107,108,109,110,111,112,113,114,115,116,117,118,119,120,121,122,123,124,125,126,127,128,129,130,131,132,133,134,135,136,137,138,139,140,141,142,143,144,145,146,147,148,149,150,151,152,153,154,155,156,157,158,159,160,161,162,163,0,1,2,3,4,5,6,7,8,9,10,11,12,13,14,15,16,17,18,19,20,21,22,23,24,25,26,27,28,29,30,31,32,33,34,35,36,37,38,39,40,41,42,43,44,45,46,47,48,49,50,51,52,53,54,55,56,57,58,59,60,61,62,63,64,65,66,67,68,69,70,71,72,73,74,75,76,77,78,79,80,81,82,83,84,85,86,87,88,89,90,91,92,93,94,95,96,97,98,99,100,101,102,103,104,105,106,107,108,109,110,111,112,113,114,115,116,117,118,119,120,121,122,123,124,125,126,127,128,129,130,131,132,133,134,135,136,137,138,139,140,141,142,143,144,145,146,147,148,149,150,151,152,153,154,155,156,157,158,159,160,161,162,163,0,1,2,3,4,5,6,7,8,9,10,11,12,13,14,15,16,17,18,19,20,21,22,23,24,25,26,27,28,29,30,31,32,33,34,35,36,37,38,39,40,41,42,43,44,45,46,47,48,49,50,51,52,53,54,55,56,57,58,59,60,61,62,63,64,65,66,67,68,69,70,71,72,73,74,75,76,77,78,79,80,81,82,83,84,85,86,87,88,89,90,91,92,93,94,95,96,97,98,99,100,101,102,103,104,105,106,107,108,109,110,111,112,113,114,115,116,117,118,119,120,121,122,123,124,125,126,127,128,129,130,131,132,133,134,135,136,137,138,139,140,141,142,143,144,145,146,147,148,149,150,151,152,153,154,155,156,157,158,159,160,161,162,163,0,1,2,3,4,5,6,7,8,9,10,11,12,13,14,15,16,17,18,19,20,21,22,23,24,25,26,27,28,29,30,31,32,33,34,35,36,37,38,39,40,41,42,43,44,45,46,47,48,49,50,51,52,53,54,55,56,57,58,59,60,61,62,63,64,65,66,67,68,69,70,71,72,73,74,75,76,77,78,79,80,81,82,83,84,85,86,87,88,89,90,91,92,93,94,95,96,97,98,99,100,101,102,103,104,105,106,107,108,109,110,111,112,113,114,115,116,117,118,119,120,121,122,123,124,125,126,127,128,129,130,131,132,133,134,135,136,137,138,139,140,141,142,143,144,145,146,147,148,149,150,151,152,153,154,155,156,157,158,159,160,161,162,163,0,1,2,3,4,5,6,7,8,9,10,11,12,13,14,15,16,17,18,19,20,21,22,23,24,25,26,27,28,29,30,31,32,33,34,35,36,37,38,39,40,41,42,43,44,45,46,47,48,49,50,51,52,53,54,55,56,57,58,59,60,61,62,63,64,65,66,67,68,69,70,71,72,73,74,75,76,77,78,79,80,81,82,83,84,85,86,87,88,89,90,91,92,93,94,95,96,97,98,99,100,101,102,103,104,105,106,107,108,109,110,111,112,113,114,115,116,117,118,119,120,121,122,123,124,125,126,127,128,129,130,131,132,133,134,135,136,137,138,139,140,141,142,143,144,145,146,147,148,149,150,151,152,153,154,155,156,157,158,159,160,161,162,163,0,1,2,3,4,5,6,7,8,9,10,11,12,13,14,15,16,17,18,19,20,21,22,23,24,25,26,27,28,29,30,31,32,33,34,35,36,37,38,39,40,41,42,43,44,45,46,47,48,49,50,51,52,53,54,55,56,57,58,59,60,61,62,63,64,65,66,67,68,69,70,71,72,73,74,75,76,77,78,79,80,81,82,83,84,85,86,87,88,89,90,91,92,93,94,95,96,97,98,99,100,101,102,103,104,105,106,107,108,109,110,111,112,113,114,115,116,117,118,119,120,121,122,123,124,125,126,127,128,129,130,131,132,133,134,135,136,137,138,139,140,141,142,143,144,145,146,147,148,149,150,151,152,153,154,155,156,157,158,159,160,161,162,163,0,1,2,3,4,5,6,7,8,9,10,11,12,13,14,15,16,17,18,19,20,21,22,23,24,25,26,27,28,29,30,31,32,33,34,35,36,37,38,39,40,41,42,43,44,45,46,47,48,49,50,51,52,53,54,55,56,57,58,59,60,61,62,63,64,65,66,67,68,69,70,71,72,73,74,75,76,77,78,79,80,81,82,83,84,85,86,87,88,89,90,91,92,93,94,95,96,97,98,99,100,101,102,103,104,105,106,107,108,109,110,111,112,113,114,115,116,117,118,119,120,121,122,123,124,125,126,127,128,129,130,131,132,133,134,135,136,137,138,139,140,141,142,143,144,145,146,147,148,149,150,151,152,153,154,155,156,157,158,159,160,161,162,163,0,1,2,3,4,5,6,7,8,9,10,11,12,13,14,15,16,17,18,19,20,21,22,23,24,25,26,27,28,29,30,31,32,33,34,35,36,37,38,39,40,41,42,43,44,45,46,47,48,49,50,51,52,53,54,55,56,57,58,59,60,61,62,63,64,65,66,67,68,69,70,71,72,73,74,75,76,77,78,79,80,81,82,83,84,85,86,87,88,89,90,91,92,93,94,95,96,97,98,99,100,101,102,103,104,105,106,107,108,109,110,111,112,113,114,115,116,117,118,119,120,121,122,123,124,125,126,127,128,129,130,131,132,133,134,135,136,137,138,139,140,141,142,143,144,145,146,147,148,149,150,151,152,153,154,155,156,157,158,159,160,161,162,163,0,1,2,3,4,5,6,7,8,9,10,11,12,13,14,15,16,17,18,19,20,21,22,23,24,25,26,27,28,29,30,31,32,33,34,35,36,37,38,39,40,41,42,43,44,45,46,47,48,49,50,51,52,53,54,55,56,57,58,59,60,61,62,63,64,65,66,67,68,69,70,71,72,73,74,75,76,77,78,79,80,81,82,83,84,85,86,87,88,89,90,91,92,93,94,95,96,97,98,99,100,101,102,103,104,105,106,107,108,109,110,111,112,113,114,115,116,117,118,119,120,121,122,123,124,125,126,127,128,129,130,131,132,133,134,135,136,137,138,139,140,141,142,143,144,145,146,147,148,149,150,151,152,153,154,155,156,157,158,159,160,161,162,163,0,1,2,3,4,5,6,7,8,9,10,11,12,13,14,15,16,17,18,19,20,21,22,23,24,25,26,27,28,29,30,31,32,33,34,35,36,37,38,39,40,41,42,43,44,45,46,47,48,49,50,51,52,53,54,55,56,57,58,59,60,61,62,63,64,65,66,67,68,69,70,71,72,73,74,75,76,77,78,79,80,81,82,83,84,85,86,87,88,89,90,91,92,93,94,95,96,97,98,99,100,101,102,103,104,105,106,107,108,109,110,111,112,113,114,115,116,117,118,119,120,121,122,123,124,125,126,127,128,129,130,131,132,133,134,135,136,137,138,139,140,141,142,143,144,145,146,147,148,149,150,151,152,153,154,155,156,157,158,159,160,161,162,163,0,1,2,3,4,5,6,7,8,9,10,11,12,13,14,15,16,17,18,19,20,21,22,23,24,25,26,27,28,29,30,31,32,33,34,35,36,37,38,39,40,41,42,43,44,45,46,47,48,49,50,51,52,53,54,55,56,57,58,59,60,61,62,63,64,65,66,67,68,69,70,71,72,73,74,75,76,77,78,79,80,81,82,83,84,85,86,87,88,89,90,91,92,93,94,95,96,97,98,99,100,101,102,103,104,105,106,107,108,109,110,111,112,113,114,115,116,117,118,119,120,121,122,123,124,125,126,127,128,129,130,131,132,133,134,135,136,137,138,139,140,141,142,143,144,145,146,147,148,149,150,151,152,153,154,155,156,157,158,159,160,161,162,163,0,1,2,3,4,5,6,7,8,9,10,11,12,13,14,15,16,17,18,19,20,21,22,23,24,25,26,27,28,29,30,31,32,33,34,35,36,37,38,39,40,41,42,43,44,45,46,47,48,49,50,51,52,53,54,55,56,57,58,59,60,61,62,63,64,65,66,67,68,69,70,71,72,73,74,75,76,77,78,79,80,81,82,83,84,85,86,87,88,89,90,91,92,93,94,95,96,97,98,99,100,101,102,103,104,105,106,107,108,109,110,111,112,113,114,115,116,117,118,119,120,121,122,123,124,125,126,127,128,129,130,131,132,133,134,135,136,137,138,139,140,141,142,143,144,145,146,147,148,149,150,151,152,153,154,155,156,157,158,159,160,161,162,163,0,1,2,3,4,5,6,7,8,9,10,11,12,13,14,15,16,17,18,19,20,21,22,23,24,25,26,27,28,29,30,31,32,33,34,35,36,37,38,39,40,41,42,43,44,45,46,47,48,49,50,51,52,53,54,55,56,57,58,59,60,61,62,63,64,65,66,67,68,69,70,71,72,73,74,75,76,77,78,79,80,81,82,83,84,85,86,87,88,89,90,91,92,93,94,95,96,97,98,99,100,101,102,103,104,105,106,107,108,109,110,111,112,113,114,115,116,117,118,119,120,121,122,123,124,125,126,127,128,129,130,131,132,133,134,135,136,137,138,139,140,141,142,143,144,145,146,147,148,149,150,151,152,153,154,155,156,157,158,159,160,161,162,163,0,1,2,3,4,5,6,7,8,9,10,11,12,13,14,15,16,17,18,19,20,21,22,23,24,25,26,27,28,29,30,31,32,33,34,35,36,37,38,39,40,41,42,43,44,45,46,47,48,49,50,51,52,53,54,55,56,57,58,59,60,61,62,63,64,65,66,67,68,69,70,71,72,73,74,75,76,77,78,79,80,81,82,83,84,85,86,87,88,89,90,91,92,93,94,95,96,97,98,99,100,101,102,103,104,105,106,107,108,109,110,111,112,113,114,115,116,117,118,119,120,121,122,123,124,125,126,127,128,129,130,131,132,133,134,135,136,137,138,139,140,141,142,143,144,145,146,147,148,149,150,151,152,153,154,155,156,157,158,159,160,161,162,163,0,1,2,3,4,5,6,7,8,9,10,11,12,13,14,15,16,17,18,19,20,21,22,23,24,25,26,27,28,29,30,31,32,33,34,35,36,37,38,39,40,41,42,43,44,45,46,47,48,49,50,51,52,53,54,55,56,57,58,59,60,61,62,63,64,65,66,67,68,69,70,71,72,73,74,75,76,77,78,79,80,81,82,83,84,85,86,87,88,89,90,91,92,93,94,95,96,97,98,99,100,101,102,103,104,105,106,107,108,109,110,111,112,113,114,115,116,117,118,119,120,121,122,123,124,125,126,127,128,129,130,131,132,133,134,135,136,137,138,139,140,141,142,143,144,145,146,147,148,149,150,151,152,153,154,155,156,157,158,159,160,161,162,163,0,1,2,3,4,5,6,7,8,9,10,11,12,13,14,15,16,17,18,19,20,21,22,23,24,25,26,27,28,29,30,31,32,33,34,35,36,37,38,39,40,41,42,43,44,45,46,47,48,49,50,51,52,53,54,55,56,57,58,59,60,61,62,63,64,65,66,67,68,69,70,71,72,73,74,75,76,77,78,79,80,81,82,83,84,85,86,87,88,89,90,91,92,93,94,95,96,97,98,99,100,101,102,103,104,105,106,107,108,109,110,111,112,113,114,115,116,117,118,119,120,121,122,123,124,125,126,127,128,129,130,131,132,133,134,135,136,137,138,139,140,141,142,143,144,145,146,147,148,149,150,151,152,153,154,155,156,157,158,159,160,161,162,163,0,1,2,3,4,5,6,7,8,9,10,11,12,13,14,15,16,17,18,19,20,21,22,23,24,25,26,27,28,29,30,31,32,33,34,35,36,37,38,39,40,41,42,43,44,45,46,47,48,49,50,51,52,53,54,55,56,57,58,59,60,61,62,63,64,65,66,67,68,69,70,71,72,73,74,75,76,77,78,79,80,81,82,83,84,85,86,87,88,89,90,91,92,93,94,95,96,97,98,99,100,101,102,103,104,105,106,107,108,109,110,111,112,113,114,115,116,117,118,119,120,121,122,123,124,125,126,127,128,129,130,131,132,133,134,135,136,137,138,139,140,141,142,143,144,145,146,147,148,149,150,151,152,153,154,155,156,157,158,159,160,161,162,163,0,1,2,3,4,5,6,7,8,9,10,11,12,13,14,15,16,17,18,19,20,21,22,23,24,25,26,27,28,29,30,31,32,33,34,35,36,37,38,39,40,41,42,43,44,45,46,47,48,49,50,51,52,53,54,55,56,57,58,59,60,61,62,63,64,65,66,67,68,69,70,71,72,73,74,75,76,77,78,79,80,81,82,83,84,85,86,87,88,89,90,91,92,93,94,95,96,97,98,99,100,101,102,103,104,105,106,107,108,109,110,111,112,113,114,115,116,117,118,119,120,121,122,123,124,125,126,127,128,129,130,131,132,133,134,135,136,137,138,139,140,141,142,143,144,145,146,147,148,149,150,151,152,153,154,155,156,157,158,159,160,161,162,163,0,1,2,3,4,5,6,7,8,9,10,11,12,13,14,15,16,17,18,19,20,21,22,23,24,25,26,27,28,29,30,31,32,33,34,35,36,37,38,39,40,41,42,43,44,45,46,47,48,49,50,51,52,53,54,55,56,57,58,59,60,61,62,63,64,65,66,67,68,69,70,71,72,73,74,75,76,77,78,79,80,81,82,83,84,85,86,87,88,89,90,91,92,93,94,95,96,97,98,99,100,101,102,103,104,105,106,107,108,109,110,111,112,113,114,115,116,117,118,119,120,121,122,123,124,125,126,127,128,129,130,131,132,133,134,135,136,137,138,139,140,141,142,143,144,145,146,147,148,149,150,151,152,153,154,155,156,157,158,159,160,161,162,163,0,1,2,3,4,5,6,7,8,9,10,11,12,13,14,15,16,17,18,19,20,21,22,23,24,25,26,27,28,29,30,31,32,33,34,35,36,37,38,39,40,41,42,43,44,45,46,47,48,49,50,51,52,53,54,55,56,57,58,59,60,61,62,63,64,65,66,67,68,69,70,71,72,73,74,75,76,77,78,79,80,81,82,83,84,85,86,87,88,89,90,91,92,93,94,95,96,97,98,99,100,101,102,103,104,105,106,107,108,109,110,111,112,113,114,115,116,117,118,119,120,121,122,123,124,125,126,127,128,129,130,131,132,133,134,135,136,137,138,139,140,141,142,143,144,145,146,147,148,149,150,151,152,153,154,155,156,157,158,159,160,161,162,163,0,1,2,3,4,5,6,7,8,9,10,11,12,13,14,15,16,17,18,19,20,21,22,23,24,25,26,27,28,29,30,31,32,33,34,35,36,37,38,39,40,41,42,43,44,45,46,47,48,49,50,51,52,53,54,55,56,57,58,59,60,61,62,63,64,65,66,67,68,69,70,71,72,73,74,75,76,77,78,79,80,81,82,83,84,85,86,87,88,89,90,91,92,93,94,95,96,97,98,99,100,101,102,103,104,105,106,107,108,109,110,111,112,113,114,115,116,117,118,119,120,121,122,123,124,125,126,127,128,129,130,131,132,133,134,135,136,137,138,139,140,141,142,143,144,145,146,147,148,149,150,151,152,153,154,155,156,157,158,159,160,161,162,163,0,1,2,3,4,5,6,7,8,9,10,11,12,13,14,15,16,17,18,19,20,21,22,23,24,25,26,27,28,29,30,31,32,33,34,35,36,37,38,39,40,41,42,43,44,45,46,47,48,49,50,51,52,53,54,55,56,57,58,59,60,61,62,63,64,65,66,67,68,69,70,71,72,73,74,75,76,77,78,79,80,81,82,83,84,85,86,87,88,89,90,91,92,93,94,95,96,97,98,99,100,101,102,103,104,105,106,107,108,109,110,111,112,113,114,115,116,117,118,119,120,121,122,123,124,125,126,127,128,129,130,131,132,133,134,135,136,137,138,139,140,141,142,143,144,145,146,147,148,149,150,151,152,153,154,155,156,157,158,159,160,161,162,163,0,1,2,3,4,5,6,7,8,9,10,11,12,13,14,15,16,17,18,19,20,21,22,23,24,25,26,27,28,29,30,31,32,33,34,35,36,37,38,39,40,41,42,43,44,45,46,47,48,49,50,51,52,53,54,55,56,57,58,59,60,61,62,63,64,65,66,67,68,69,70,71,72,73,74,75,76,77,78,79,80,81,82,83,84,85,86,87,88,89,90,91,92,93,94,95,96,97,98,99,100,101,102,103,104,105,106,107,108,109,110,111,112,113,114,115,116,117,118,119,120,121,122,123,124,125,126,127,128,129,130,131,132,133,134,135,136,137,138,139,140,141,142,143,144,145,146,147,148,149,150,151,152,153,154,155,156,157,158,159,160,161,162,163,0,1,2,3,4,5,6,7,8,9,10,11,12,13,14,15,16,17,18,19,20,21,22,23,24,25,26,27,28,29,30,31,32,33,34,35,36,37,38,39,40,41,42,43,44,45,46,47,48,49,50,51,52,53,54,55,56,57,58,59,60,61,62,63,64,65,66,67,68,69,70,71,72,73,74,75,76,77,78,79,80,81,82,83,84,85,86,87,88,89,90,91,92,93,94,95,96,97,98,99,100,101,102,103,104,105,106,107,108,109,110,111,112,113,114,115,116,117,118,119,120,121,122,123,124,125,126,127,128,129,130,131,132,133,134,135,136,137,138,139,140,141,142,143,144,145,146,147,148,149,150,151,152,153,154,155,156,157,158,159,160,161,162,163,0,1,2,3,4,5,6,7,8,9,10,11,12,13,14,15,16,17,18,19,20,21,22,23,24,25,26,27,28,29,30,31,32,33,34,35,36,37,38,39,40,41,42,43,44,45,46,47,48,49,50,51,52,53,54,55,56,57,58,59,60,61,62,63,64,65,66,67,68,69,70,71,72,73,74,75,76,77,78,79,80,81,82,83,84,85,86,87,88,89,90,91,92,93,94,95,96,97,98,99,100,101,102,103,104,105,106,107,108,109,110,111,112,113,114,115,116,117,118,119,120,121,122,123,124,125,126,127,128,129,130,131,132,133,134,135,136,137,138,139,140,141,142,143,144,145,146,147,148,149,150,151,152,153,154,155,156,157,158,159,160,161,162,163,0,1,2,3,4,5,6,7,8,9,10,11,12,13,14,15,16,17,18,19,20,21,22,23,24,25,26,27,28,29,30,31,32,33,34,35,36,37,38,39,40,41,42,43,44,45,46,47,48,49,50,51,52,53,54,55,56,57,58,59,60,61,62,63,64,65,66,67,68,69,70,71,72,73,74,75,76,77,78,79,80,81,82,83,84,85,86,87,88,89,90,91,92,93,94,95,96,97,98,99,100,101,102,103,104,105,106,107,108,109,110,111,112,113,114,115,116,117,118,119,120,121,122,123,124,125,126,127,128,129,130,131,132,133,134,135,136,137,138,139,140,141,142,143,144,145,146,147,148,149,150,151,152,153,154,155,156,157,158,159,160,161,162,163,0,1,2,3,4,5,6,7,8,9,10,11,12,13,14,15,16,17,18,19,20,21,22,23,24,25,26,27,28,29,30,31,32,33,34,35,36,37,38,39,40,41,42,43,44,45,46,47,48,49,50,51,52,53,54,55,56,57,58,59,60,61,62,63,64,65,66,67,68,69,70,71,72,73,74,75,76,77,78,79,80,81,82,83,84,85,86,87,88,89,90,91,92,93,94,95,96,97,98,99,100,101,102,103,104,105,106,107,108,109,110,111,112,113,114,115,116,117,118,119,120,121,122,123,124,125,126,127,128,129,130,131,132,133,134,135,136,137,138,139,140,141,142,143,144,145,146,147,148,149,150,151,152,153,154,155,156,157,158,159,160,161,162,163,0,1,2,3,4,5,6,7,8,9,10,11,12,13,14,15,16,17,18,19,20,21,22,23,24,25,26,27,28,29,30,31,32,33,34,35,36,37,38,39,40,41,42,43,44,45,46,47,48,49,50,51,52,53,54,55,56,57,58,59,60,61,62,63,64,65,66,67,68,69,70,71,72,73,74,75,76,77,78,79,80,81,82,83,84,85,86,87,88,89,90,91,92,93,94,95,96,97,98,99,100,101,102,103,104,105,106,107,108,109,110,111,112,113,114,115,116,117,118,119,120,121,122,123,124,125,126,127,128,129,130,131,132,133,134,135,136,137,138,139,140,141,142,143,144,145,146,147,148,149,150,151,152,153,154,155,156,157,158,159,160,161,162,163,0,1,2,3,4,5,6,7,8,9,10,11,12,13,14,15,16,17,18,19,20,21,22,23,24,25,26,27,28,29,30,31,32,33,34,35,36,37,38,39,40,41,42,43,44,45,46,47,48,49,50,51,52,53,54,55,56,57,58,59,60,61,62,63,64,65,66,67,68,69,70,71,72,73,74,75,76,77,78,79,80,81,82,83,84,85,86,87,88,89,90,91,92,93,94,95,96,97,98,99,100,101,102,103,104,105,106,107,108,109,110,111,112,113,114,115,116,117,118,119,120,121,122,123,124,125,126,127,128,129,130,131,132,133,134,135,136,137,138,139,140,141,142,143,144,145,146,147,148,149,150,151,152,153,154,155,156,157,158,159,160,161,162,163,0,1,2,3,4,5,6,7,8,9,10,11,12,13,14,15,16,17,18,19,20,21,22,23,24,25,26,27,28,29,30,31,32,33,34,35,36,37,38,39,40,41,42,43,44,45,46,47,48,49,50,51,52,53,54,55,56,57,58,59,60,61,62,63,64,65,66,67,68,69,70,71,72,73,74,75,76,77,78,79,80,81,82,83,84,85,86,87,88,89,90,91,92,93,94,95,96,97,98,99,100,101,102,103,104,105,106,107,108,109,110,111,112,113,114,115,116,117,118,119,120,121,122,123,124,125,126,127,128,129,130,131,132,133,134,135,136,137,138,139,140,141,142,143,144,145,146,147,148,149,150,151,152,153,154,155,156,157,158,159,160,161,162,163,0,1,2,3,4,5,6,7,8,9,10,11,12,13,14,15,16,17,18,19,20,21,22,23,24,25,26,27,28,29,30,31,32,33,34,35,36,37,38,39,40,41,42,43,44,45,46,47,48,49,50,51,52,53,54,55,56,57,58,59,60,61,62,63,64,65,66,67,68,69,70,71,72,73,74,75,76,77,78,79,80,81,82,83,84,85,86,87,88,89,90,91,92,93,94,95,96,97,98,99,100,101,102,103,104,105,106,107,108,109,110,111,112,113,114,115,116,117,118,119,120,121,122,123,124,125,126,127,128,129,130,131,132,133,134,135,136,137,138,139,140,141,142,143,144,145,146,147,148,149,150,151,152,153,154,155,156,157,158,159,160,161,162,163,0,1,2,3,4,5,6,7,8,9,10,11,12,13,14,15,16,17,18,19,20,21,22,23,24,25,26,27,28,29,30,31,32,33,34,35,36,37,38,39,40,41,42,43,44,45,46,47,48,49,50,51,52,53,54,55,56,57,58,59,60,61,62,63,64,65,66,67,68,69,70,71,72,73,74,75,76,77,78,79,80,81,82,83,84,85,86,87,88,89,90,91,92,93,94,95,96,97,98,99,100,101,102,103,104,105,106,107,108,109,110,111,112,113,114,115,116,117,118,119,120,121,122,123,124,125,126,127,128,129,130,131,132,133,134,135,136,137,138,139,140,141,142,143,144,145,146,147,148,149,150,151,152,153,154,155,156,157,158,159,160,161,162,163,0,1,2,3,4,5,6,7,8,9,10,11,12,13,14,15,16,17,18,19,20,21,22,23,24,25,26,27,28,29,30,31,32,33,34,35,36,37,38,39,40,41,42,43,44,45,46,47,48,49,50,51,52,53,54,55,56,57,58,59,60,61,62,63,64,65,66,67,68,69,70,71,72,73,74,75,76,77,78,79,80,81,82,83,84,85,86,87,88,89,90,91,92,93,94,95,96,97,98,99,100,101,102,103,104,105,106,107,108,109,110,111,112,113,114,115,116,117,118,119,120,121,122,123,124,125,126,127,128,129,130,131,132,133,134,135,136,137,138,139,140,141,142,143,144,145,146,147,148,149,150,151,152,153,154,155,156,157,158,159,160,161,162,163,0,1,2,3,4,5,6,7,8,9,10,11,12,13,14,15,16,17,18,19,20,21,22,23,24,25,26,27,28,29,30,31,32,33,34,35,36,37,38,39,40,41,42,43,44,45,46,47,48,49,50,51,52,53,54,55,56,57,58,59,60,61,62,63,64,65,66,67,68,69,70,71,72,73,74,75,76,77,78,79,80,81,82,83,84,85,86,87,88,89,90,91,92,93,94,95,96,97,98,99,100,101,102,103,104,105,106,107,108,109,110,111,112,113,114,115,116,117,118,119,120,121,122,123,124,125,126,127,128,129,130,131,132,133,134,135,136,137,138,139,140,141,142,143,144,145,146,147,148,149,150,151,152,153,154,155,156,157,158,159,160,161,162,163,0,1,2,3,4,5,6,7,8,9,10,11,12,13,14,15,16,17,18,19,20,21,22,23,24,25,26,27,28,29,30,31,32,33,34,35,36,37,38,39,40,41,42,43,44,45,46,47,48,49,50,51,52,53,54,55,56,57,58,59,60,61,62,63,64,65,66,67,68,69,70,71,72,73,74,75,76,77,78,79,80,81,82,83,84,85,86,87,88,89,90,91,92,93,94,95,96,97,98,99,100,101,102,103,104,105,106,107,108,109,110,111,112,113,114,115,116,117,118,119,120,121,122,123,124,125,126,127,128,129,130,131,132,133,134,135,136,137,138,139,140,141,142,143,144,145,146,147,148,149,150,151,152,153,154,155,156,157,158,159,160,161,162,163,0,1,2,3,4,5,6,7,8,9,10,11,12,13,14,15,16,17,18,19,20,21,22,23,24,25,26,27,28,29,30,31,32,33,34,35,36,37,38,39,40,41,42,43,44,45,46,47,48,49,50,51,52,53,54,55,56,57,58,59,60,61,62,63,64,65,66,67,68,69,70,71,72,73,74,75,76,77,78,79,80,81,82,83,84,85,86,87,88,89,90,91,92,93,94,95,96,97,98,99,100,101,102,103,104,105,106,107,108,109,110,111,112,113,114,115,116,117,118,119,120,121,122,123,124,125,126,127,128,129,130,131,132,133,134,135,136,137,138,139,140,141,142,143,144,145,146,147,148,149,150,151,152,153,154,155,156,157,158,159,160,161,162,163,0,1,2,3,4,5,6,7,8,9,10,11,12,13,14,15,16,17,18,19,20,21,22,23,24,25,26,27,28,29,30,31,32,33,34,35,36,37,38,39,40,41,42,43,44,45,46,47,48,49,50,51,52,53,54,55,56,57,58,59,60,61,62,63,64,65,66,67,68,69,70,71,72,73,74,75,76,77,78,79,80,81,82,83,84,85,86,87,88,89,90,91,92,93,94,95,96,97,98,99,100,101,102,103,104,105,106,107,108,109,110,111,112,113,114,115,116,117,118,119,120,121,122,123,124,125,126,127,128,129,130,131,132,133,134,135,136,137,138,139,140,141,142,143,144,145,146,147,148,149,150,151,152,153,154,155,156,157,158,159,160,161,162,163,0,1,2,3,4,5,6,7,8,9,10,11,12,13,14,15,16,17,18,19,20,21,22,23,24,25,26,27,28,29,30,31,32,33,34,35,36,37,38,39,40,41,42,43,44,45,46,47,48,49,50,51,52,53,54,55,56,57,58,59,60,61,62,63,64,65,66,67,68,69,70,71,72,73,74,75,76,77,78,79,80,81,82,83,84,85,86,87,88,89,90,91,92,93,94,95,96,97,98,99,100,101,102,103,104,105,106,107,108,109,110,111,112,113,114,115,116,117,118,119,120,121,122,123,124,125,126,127,128,129,130,131,132,133,134,135,136,137,138,139,140,141,142,143,144,145,146,147,148,149,150,151,152,153,154,155,156,157,158,159,160,161,162,163,0,1,2,3,4,5,6,7,8,9,10,11,12,13,14,15,16,17,18,19,20,21,22,23,24,25,26,27,28,29,30,31,32,33,34,35,36,37,38,39,40,41,42,43,44,45,46,47,48,49,50,51,52,53,54,55,56,57,58,59,60,61,62,63,64,65,66,67,68,69,70,71,72,73,74,75,76,77,78,79,80,81,82,83,84,85,86,87,88,89,90,91,92,93,94,95,96,97,98,99,100,101,102,103,104,105,106,107,108,109,110,111,112,113,114,115,116,117,118,119,120,121,122,123,124,125,126,127,128,129,130,131,132,133,134,135,136,137,138,139,140,141,142,143,144,145,146,147,148,149,150,151,152,153,154,155,156,157,158,159,160,161,162,163,0,1,2,3,4,5,6,7,8,9,10,11,12,13,14,15,16,17,18,19,20,21,22,23,24,25,26,27,28,29,30,31,32,33,34,35,36,37,38,39,40,41,42,43,44,45,46,47,48,49,50,51,52,53,54,55,56,57,58,59,60,61,62,63,64,65,66,67,68,69,70,71,72,73,74,75,76,77,78,79,80,81,82,83,84,85,86,87,88,89,90,91,92,93,94,95,96,97,98,99,100,101,102,103,104,105,106,107,108,109,110,111,112,113,114,115,116,117,118,119,120,121,122,123,124,125,126,127,128,129,130,131,132,133,134,135,136,137,138,139,140,141,142,143,144,145,146,147,148,149,150,151,152,153,154,155,156,157,158,159,160,161,162,163,0,1,2,3,4,5,6,7,8,9,10,11,12,13,14,15,16,17,18,19,20,21,22,23,24,25,26,27,28,29,30,31,32,33,34,35,36,37,38,39,40,41,42,43,44,45,46,47,48,49,50,51,52,53,54,55,56,57,58,59,60,61,62,63,64,65,66,67,68,69,70,71,72,73,74,75,76,77,78,79,80,81,82,83,84,85,86,87,88,89,90,91,92,93,94,95,96,97,98,99,100,101,102,103,104,105,106,107,108,109,110,111,112,113,114,115,116,117,118,119,120,121,122,123,124,125,126,127,128,129,130,131,132,133,134,135,136,137,138,139,140,141,142,143,144,145,146,147,148,149,150,151,152,153,154,155,156,157,158,159,160,161,162,163,0,1,2,3,4,5,6,7,8,9,10,11,12,13,14,15,16,17,18,19,20,21,22,23,24,25,26,27,28,29,30,31,32,33,34,35,36,37,38,39,40,41,42,43,44,45,46,47,48,49,50,51,52,53,54,55,56,57,58,59,60,61,62,63,64,65,66,67,68,69,70,71,72,73,74,75,76,77,78,79,80,81,82,83,84,85,86,87,88,89,90,91,92,93,94,95,96,97,98,99,100,101,102,103,104,105,106,107,108,109,110,111,112,113,114,115,116,117,118,119,120,121,122,123,124,125,126,127,128,129,130,131,132,133,134,135,136,137,138,139,140,141,142,143,144,145,146,147,148,149,150,151,152,153,154,155,156,157,158,159,160,161,162,163,0,1,2,3,4,5,6,7,8,9,10,11,12,13,14,15,16,17,18,19,20,21,22,23,24,25,26,27,28,29,30,31,32,33,34,35,36,37,38,39,40,41,42,43,44,45,46,47,48,49,50,51,52,53,54,55,56,57,58,59,60,61,62,63,64,65,66,67,68,69,70,71,72,73,74,75,76,77,78,79,80,81,82,83,84,85,86,87,88,89,90,91,92,93,94,95,96,97,98,99,100,101,102,103,104,105,106,107,108,109,110,111,112,113,114,115,116,117,118,119,120,121,122,123,124,125,126,127,128,129,130,131,132,133,134,135,136,137,138,139,140,141,142,143,144,145,146,147,148,149,150,151,152,153,154,155,156,157,158,159,160,161,162,163,0,1,2,3,4,5,6,7,8,9,10,11,12,13,14,15,16,17,18,19,20,21,22,23,24,25,26,27,28,29,30,31,32,33,34,35,36,37,38,39,40,41,42,43,44,45,46,47,48,49,50,51,52,53,54,55,56,57,58,59,60,61,62,63,64,65,66,67,68,69,70,71,72,73,74,75,76,77,78,79,80,81,82,83,84,85,86,87,88,89,90,91,92,93,94,95,96,97,98,99,100,101,102,103,104,105,106,107,108,109,110,111,112,113,114,115,116,117,118,119,120,121,122,123,124,125,126,127,128,129,130,131,132,133,134,135,136,137,138,139,140,141,142,143,144,145,146,147,148,149,150,151,152,153,154,155,156,157,158,159,160,161,162,163,0,1,2,3,4,5,6,7,8,9,10,11,12,13,14,15,16,17,18,19,20,21,22,23,24,25,26,27,28,29,30,31,32,33,34,35,36,37,38,39,40,41,42,43,44,45,46,47,48,49,50,51,52,53,54,55,56,57,58,59,60,61,62,63,64,65,66,67,68,69,70,71,72,73,74,75,76,77,78,79,80,81,82,83,84,85,86,87,88,89,90,91,92,93,94,95,96,97,98,99,100,101,102,103,104,105,106,107,108,109,110,111,112,113,114,115,116,117,118,119,120,121,122,123,124,125,126,127,128,129,130,131,132,133,134,135,136,137,138,139,140,141,142,143,144,145,146,147,148,149,150,151,152,153,154,155,156,157,158,159,160,161,162,163,0,1,2,3,4,5,6,7,8,9,10,11,12,13,14,15,16,17,18,19,20,21,22,23,24,25,26,27,28,29,30,31,32,33,34,35,36,37,38,39,40,41,42,43,44,45,46,47,48,49,50,51,52,53,54,55,56,57,58,59,60,61,62,63,64,65,66,67,68,69,70,71,72,73,74,75,76,77,78,79,80,81,82,83,84,85,86,87,88,89,90,91,92,93,94,95,96,97,98,99,100,101,102,103,104,105,106,107,108,109,110,111,112,113,114,115,116,117,118,119,120,121,122,123,124,125,126,127,128,129,130,131,132,133,134,135,136,137,138,139,140,141,142,143,144,145,146,147,148,149,150,151,152,153,154,155,156,157,158,159,160,161,162,163,0,1,2,3,4,5,6,7,8,9,10,11,12,13,14,15,16,17,18,19,20,21,22,23,24,25,26,27,28,29,30,31,32,33,34,35,36,37,38,39,40,41,42,43,44,45,46,47,48,49,50,51,52,53,54,55,56,57,58,59,60,61,62,63,64,65,66,67,68,69,70,71,72,73,74,75,76,77,78,79,80,81,82,83,84,85,86,87,88,89,90,91,92,93,94,95,96,97,98,99,100,101,102,103,104,105,106,107,108,109,110,111,112,113,114,115,116,117,118,119,120,121,122,123,124,125,126,127,128,129,130,131,132,133,134,135,136,137,138,139,140,141,142,143,144,145,146,147,148,149,150,151,152,153,154,155,156,157,158,159,160,161,162,163,0,1,2,3,4,5,6,7,8,9,10,11,12,13,14,15,16,17,18,19,20,21,22,23,24,25,26,27,28,29,30,31,32,33,34,35,36,37,38,39,40,41,42,43,44,45,46,47,48,49,50,51,52,53,54,55,56,57,58,59,60,61,62,63,64,65,66,67,68,69,70,71,72,73,74,75,76,77,78,79,80,81,82,83,84,85,86,87,88,89,90,91,92,93,94,95,96,97,98,99,100,101,102,103,104,105,106,107,108,109,110,111,112,113,114,115,116,117,118,119,120,121,122,123,124,125,126,127,128,129,130,131,132,133,134,135,136,137,138,139,140,141,142,143,144,145,146,147,148,149,150,151,152,153,154,155,156,157,158,159,160,161,162,163,0,1,2,3,4,5,6,7,8,9,10,11,12,13,14,15,16,17,18,19,20,21,22,23,24,25,26,27,28,29,30,31,32,33,34,35,36,37,38,39,40,41,42,43,44,45,46,47,48,49,50,51,52,53,54,55,56,57,58,59,60,61,62,63,64,65,66,67,68,69,70,71,72,73,74,75,76,77,78,79,80,81,82,83,84,85,86,87,88,89,90,91,92,93,94,95,96,97,98,99,100,101,102,103,104,105,106,107,108,109,110,111,112,113,114,115,116,117,118,119,120,121,122,123,124,125,126,127,128,129,130,131,132,133,134,135,136,137,138,139,140,141,142,143,144,145,146,147,148,149,150,151,152,153,154,155,156,157,158,159,160,161,162,163,0,1,2,3,4,5,6,7,8,9,10,11,12,13,14,15,16,17,18,19,20,21,22,23,24,25,26,27,28,29,30,31,32,33,34,35,36,37,38,39,40,41,42,43,44,45,46,47,48,49,50,51,52,53,54,55,56,57,58,59,60,61,62,63,64,65,66,67,68,69,70,71,72,73,74,75,76,77,78,79,80,81,82,83,84,85,86,87,88,89,90,91,92,93,94,95,96,97,98,99,100,101,102,103,104,105,106,107,108,109,110,111,112,113,114,115,116,117,118,119,120,121,122,123,124,125,126,127,128,129,130,131,132,133,134,135,136,137,138,139,140,141,142,143,144,145,146,147,148,149,150,151,152,153,154,155,156,157,158,159,160,161,162,163,0,1,2,3,4,5,6,7,8,9,10,11,12,13,14,15,16,17,18,19,20,21,22,23,24,25,26,27,28,29,30,31,32,33,34,35,36,37,38,39,40,41,42,43,44,45,46,47,48,49,50,51,52,53,54,55,56,57,58,59,60,61,62,63,64,65,66,67,68,69,70,71,72,73,74,75,76,77,78,79,80,81,82,83,84,85,86,87,88,89,90,91,92,93,94,95,96,97,98,99,100,101,102,103,104,105,106,107,108,109,110,111,112,113,114,115,116,117,118,119,120,121,122,123,124,125,126,127,128,129,130,131,132,133,134,135,136,137,138,139,140,141,142,143,144,145,146,147,148,149,150,151,152,153,154,155,156,157,158,159,160,161,162,163,0,1,2,3,4,5,6,7,8,9,10,11,12,13,14,15,16,17,18,19,20,21,22,23,24,25,26,27,28,29,30,31,32,33,34,35,36,37,38,39,40,41,42,43,44,45,46,47,48,49,50,51,52,53,54,55,56,57,58,59,60,61,62,63,64,65,66,67,68,69,70,71,72,73,74,75,76,77,78,79,80,81,82,83,84,85,86,87,88,89,90,91,92,93,94,95,96,97,98,99,100,101,102,103,104,105,106,107,108,109,110,111,112,113,114,115,116,117,118,119,120,121,122,123,124,125,126,127,128,129,130,131,132,133,134,135,136,137,138,139,140,141,142,143,144,145,146,147,148,149,150,151,152,153,154,155,156,157,158,159,160,161,162,163,0,1,2,3,4,5,6,7,8,9,10,11,12,13,14,15,16,17,18,19,20,21,22,23,24,25,26,27,28,29,30,31,32,33,34,35,36,37,38,39,40,41,42,43,44,45,46,47,48,49,50,51,52,53,54,55,56,57,58,59,60,61,62,63,64,65,66,67,68,69,70,71,72,73,74,75,76,77,78,79,80,81,82,83,84,85,86,87,88,89,90,91,92,93,94,95,96,97,98,99,100,101,102,103,104,105,106,107,108,109,110,111,112,113,114,115,116,117,118,119,120,121,122,123,124,125,126,127,128,129,130,131,132,133,134,135,136,137,138,139,140,141,142,143,144,145,146,147,148,149,150,151,152,153,154,155,156,157,158,159,160,161,162,163,0,1,2,3,4,5,6,7,8,9,10,11,12,13,14,15,16,17,18,19,20,21,22,23,24,25,26,27,28,29,30,31,32,33,34,35,36,37,38,39,40,41,42,43,44,45,46,47,48,49,50,51,52,53,54,55,56,57,58,59,60,61,62,63,64,65,66,67,68,69,70,71,72,73,74,75,76,77,78,79,80,81,82,83,84,85,86,87,88,89,90,91,92,93,94,95,96,97,98,99,100,101,102,103,104,105,106,107,108,109,110,111,112,113,114,115,116,117,118,119,120,121,122,123,124,125,126,127,128,129,130,131,132,133,134,135,136,137,138,139,140,141,142,143,144,145,146,147,148,149,150,151,152,153,154,155,156,157,158,159,160,161,162,163,0,1,2,3,4,5,6,7,8,9,10,11,12,13,14,15,16,17,18,19,20,21,22,23,24,25,26,27,28,29,30,31,32,33,34,35,36,37,38,39,40,41,42,43,44,45,46,47,48,49,50,51,52,53,54,55,56,57,58,59,60,61,62,63,64,65,66,67,68,69,70,71,72,73,74,75,76,77,78,79,80,81,82,83,84,85,86,87,88,89,90,91,92,93,94,95,96,97,98,99,100,101,102,103,104,105,106,107,108,109,110,111,112,113,114,115,116,117,118,119,120,121,122,123,124,125,126,127,128,129,130,131,132,133,134,135,136,137,138,139,140,141,142,143,144,145,146,147,148,149,150,151,152,153,154,155,156,157,158,159,160,161,162,163,0,1,2,3,4,5,6,7,8,9,10,11,12,13,14,15,16,17,18,19,20,21,22,23,24,25,26,27,28,29,30,31,32,33,34,35,36,37,38,39,40,41,42,43,44,45,46,47,48,49,50,51,52,53,54,55,56,57,58,59,60,61,62,63,64,65,66,67,68,69,70,71,72,73,74,75,76,77,78,79,80,81,82,83,84,85,86,87,88,89,90,91,92,93,94,95,96,97,98,99,100,101,102,103,104,105,106,107,108,109,110,111,112,113,114,115,116,117,118,119,120,121,122,123,124,125,126,127,128,129,130,131,132,133,134,135,136,137,138,139,140,141,142,143,144,145,146,147,148,149,150,151,152,153,154,155,156,157,158,159,160,161,162,163,0,1,2,3,4,5,6,7,8,9,10,11,12,13,14,15,16,17,18,19,20,21,22,23,24,25,26,27,28,29,30,31,32,33,34,35,36,37,38,39,40,41,42,43,44,45,46,47,48,49,50,51,52,53,54,55,56,57,58,59,60,61,62,63,64,65,66,67,68,69,70,71,72,73,74,75,76,77,78,79,80,81,82,83,84,85,86,87,88,89,90,91,92,93,94,95,96,97,98,99,100,101,102,103,104,105,106,107,108,109,110,111,112,113,114,115,116,117,118,119,120,121,122,123,124,125,126,127,128,129,130,131,132,133,134,135,136,137,138,139,140,141,142,143,144,145,146,147,148,149,150,151,152,153,154,155,156,157,158,159,160,161,162,163,0,1,2,3,4,5,6,7,8,9,10,11,12,13,14,15,16,17,18,19,20,21,22,23,24,25,26,27,28,29,30,31,32,33,34,35,36,37,38,39,40,41,42,43,44,45,46,47,48,49,50,51,52,53,54,55,56,57,58,59,60,61,62,63,64,65,66,67,68,69,70,71,72,73,74,75,76,77,78,79,80,81,82,83,84,85,86,87,88,89,90,91,92,93,94,95,96,97,98,99,100,101,102,103,104,105,106,107,108,109,110,111,112,113,114,115,116,117,118,119,120,121,122,123,124,125,126,127,128,129,130,131,132,133,134,135,136,137,138,139,140,141,142,143,144,145,146,147,148,149,150,151,152,153,154,155,156,157,158,159,160,161,162,163,0,1,2,3,4,5,6,7,8,9,10,11,12,13,14,15,16,17,18,19,20,21,22,23,24,25,26,27,28,29,30,31,32,33,34,35,36,37,38,39,40,41,42,43,44,45,46,47,48,49,50,51,52,53,54,55,56,57,58,59,60,61,62,63,64,65,66,67,68,69,70,71,72,73,74,75,76,77,78,79,80,81,82,83,84,85,86,87,88,89,90,91,92,93,94,95,96,97,98,99,100,101,102,103,104,105,106,107,108,109,110,111,112,113,114,115,116,117,118,119,120,121,122,123,124,125,126,127,128,129,130,131,132,133,134,135,136,137,138,139,140,141,142,143,144,145,146,147,148,149,150,151,152,153,154,155,156,157,158,159,160,161,162,163,0,1,2,3,4,5,6,7,8,9,10,11,12,13,14,15,16,17,18,19,20,21,22,23,24,25,26,27,28,29,30,31,32,33,34,35,36,37,38,39,40,41,42,43,44,45,46,47,48,49,50,51,52,53,54,55,56,57,58,59,60,61,62,63,64,65,66,67,68,69,70,71,72,73,74,75,76,77,78,79,80,81,82,83,84,85,86,87,88,89,90,91,92,93,94,95,96,97,98,99,100,101,102,103,104,105,106,107,108,109,110,111,112,113,114,115,116,117,118,119,120,121,122,123,124,125,126,127,128,129,130,131,132,133,134,135,136,137,138,139,140,141,142,143,144,145,146,147,148,149,150,151,152,153,154,155,156,157,158,159,160,161,162,163,0,1,2,3,4,5,6,7,8,9,10,11,12,13,14,15,16,17,18,19,20,21,22,23,24,25,26,27,28,29,30,31,32,33,34,35,36,37,38,39,40,41,42,43,44,45,46,47,48,49,50,51,52,53,54,55,56,57,58,59,60,61,62,63,64,65,66,67,68,69,70,71,72,73,74,75,76,77,78,79,80,81,82,83,84,85,86,87,88,89,90,91,92,93,94,95,96,97,98,99,100,101,102,103,104,105,106,107,108,109,110,111,112,113,114,115,116,117,118,119,120,121,122,123,124,125,126,127,128,129,130,131,132,133,134,135,136,137,138,139,140,141,142,143,144,145,146,147,148,149,150,151,152,153,154,155,156,157,158,159,160,161,162,163,0,1,2,3,4,5,6,7,8,9,10,11,12,13,14,15,16,17,18,19,20,21,22,23,24,25,26,27,28,29,30,31,32,33,34,35,36,37,38,39,40,41,42,43,44,45,46,47,48,49,50,51,52,53,54,55,56,57,58,59,60,61,62,63,64,65,66,67,68,69,70,71,72,73,74,75,76,77,78,79,80,81,82,83,84,85,86,87,88,89,90,91,92,93,94,95,96,97,98,99,100,101,102,103,104,105,106,107,108,109,110,111,112,113,114,115,116,117,118,119,120,121,122,123,124,125,126,127,128,129,130,131,132,133,134,135,136,137,138,139,140,141,142,143,144,145,146,147,148,149,150,151,152,153,154,155,156,157,158,159,160,161,162,163,0,1,2,3,4,5,6,7,8,9,10,11,12,13,14,15,16,17,18,19,20,21,22,23,24,25,26,27,28,29,30,31,32,33,34,35,36,37,38,39,40,41,42,43,44,45,46,47,48,49,50,51,52,53,54,55,56,57,58,59,60,61,62,63,64,65,66,67,68,69,70,71,72,73,74,75,76,77,78,79,80,81,82,83,84,85,86,87,88,89,90,91,92,93,94,95,96,97,98,99,100,101,102,103,104,105,106,107,108,109,110,111,112,113,114,115,116,117,118,119,120,121,122,123,124,125,126,127,128,129,130,131,132,133,134,135,136,137,138,139,140,141,142,143,144,145,146,147,148,149,150,151,152,153,154,155,156,157,158,159,160,161,162,163,0,1,2,3,4,5,6,7,8,9,10,11,12,13,14,15,16,17,18,19,20,21,22,23,24,25,26,27,28,29,30,31,32,33,34,35,36,37,38,39,40,41,42,43,44,45,46,47,48,49,50,51,52,53,54,55,56,57,58,59,60,61,62,63,64,65,66,67,68,69,70,71,72,73,74,75,76,77,78,79,80,81,82,83,84,85,86,87,88,89,90,91,92,93,94,95,96,97,98,99,100,101,102,103,104,105,106,107,108,109,110,111,112,113,114,115,116,117,118,119,120,121,122,123,124,125,126,127,128,129,130,131,132,133,134,135,136,137,138,139,140,141,142,143,144,145,146,147,148,149,150,151,152,153,154,155,156,157,158,159,160,161,162,163],"trees":[{"base_weights":[-4.2068787E-4,-3.7571588E-1,3.8092947E0,-4.313881E-1,8.750395E-1,4.0151796E-1,2.8234581E1,-4.7409847E-1,-2.034765E-1,-7.3940925E-2,7.7626348E0,1.805205E-2,8.325379E0,7.4225296E1,1.3286512E0,-4.2296E-1,-4.9410167E-1,1.0290926E0,-4.2502648E-1,-3.10096E-1,2.0940244E0,4.492725E1,1.2550339E-1,1.9062102E0,-3.4848163E-1,5.19986E1,8.703569E-1,8.020896E1,9.304304E0,2.3608139E1,1.3254844E-1,-4.250483E-1,1.4443275E1,-4.9764246E-1,-4.5850754E-1,1.8778212E1,3.126312E-1,-4.4568215E-2,-4.7857794E-1,1.5672742E-1,-4.2518452E-1,1.3837576E1,-3.287152E-2,7.556803E1,2.9395437E0,1.2110994E1,-2.5188217E-1,2.0147718E1,2.3443493E-1,-4.53815E-1,1.5534328E-1,7.1584175E1,4.2240753E0,1.3959766E1,-1.3815898E-1,8.1272285E1,4.6382866E0,6.540492E-1,5.265239E1,6.3489086E1,9.557417E-1,6.4415364E0,-2.1444131E-1,-4.6445796E-1,-1.296674E-1,2.0614974E0,1.5435443E-2,-4.9990264E-1,-4.8025584E-1,-3.7993917E-1,-4.8368815E-1,6.542595E1,2.6019385E0,2.0412657E-1,4.07901E1,1.577951E0,-4.4348732E-1,-4.899267E-1,-3.5629362E-1,-1.786224E-1,4.9187546E0,-4.655508E-1,-2.5619203E-1,5.4812504E1,2.2428067E0,4.487321E0,-2.6791388E-1,7.870825E1,8.084965E0,2.7297413E1,4.415416E-1,3.2074015E0,3.6174464E0,1.7795846E0,-3.9826962E-1,2.5523689E0,4.49074E1,-1.6284744E-1,9.332779E0,-2.828296E-1,-4.8870432E-1,3.3443859E0,-2.3287547E-1,7.737861E1,3.7203503E0,2.2200348E0,7.721644E-1,4.275413E1,1.8418473E0,3.208383E0,-3.2319635E-1,6.1201053E0,8.907031E0,4.6236976E-3,1.0989755E0,-4.016704E-2,8.963308E-1,4.6391296E0,1.4617985E-1,7.168095E1,1.7023902E0,-2.4703376E-1,1.011516E0,8.881664E-1,3.1245916E1,-3.1352964E-1,5.51487E0,-4.7613E-1,-1.7859206E-1,-3.594888E-1,8.021297E-1,-3.7631202E-2,-4.9368522E-1,-3.7408825E-2,-4.4325623E-1,-4.1761985E-1,6.0172236E-1,-4.9565226E-1,-4.5449328E-1,5.3773074E0,5.700013E0,3.3535156E-1,2.2931494E1,-1.0555459E-1,8.52337E0,1.368222E0,4.7495184E0,-2.629225E-1,1.0412345E1,1.2066102E-1,-4.6976575E-1,-4.4592243E-1,-4.9731353E-1,-4.3866092E-1,8.577273E-1,1.5236088E0,-3.9405322E-1,1.9925917E1,1.1092979E0,-4.896187E-1,-3.8883317E-1,8.794665E-1,-3.362755E-1,6.840317E1,3.4848309E0,2.545204E-1,2.1468239E1,7.717822E-1,1.921729E0,1.06783E0,-4.051674E-1,6.0049915E0,1.0077632E-1,1.1723248E0,3.5997597E-3,3.2303805E0,6.069919E-2,-2.2160661E-1,1.0789518E0,2.6851043E-1,1.2349766E0,3.3705783E-1,1.511184E0,-4.3570498E-1,1.0850521E0,8.5344285E-1,2.0795433E1,5.667667E1,4.924414E0,-3.1571665E-1,3.8254204E0,3.5795662E1,1.5852202E0,-4.01796E-1,1.8424323E0,-4.929593E-1,-2.2347598E-1,1.5960641E1,7.69159E-1,-3.5209227E-1,7.1385396E-1,5.9101176E0,5.5739194E-1,8.0286615E-2,6.969446E-1,-2.5187576E-1,5.7087225E-1,3.4323971E0,5.654686E1,9.375219E0,-3.3998403E-1,1.4417832E1,-1.03938775E-2,-4.3287143E-1,9.7384214E-1,1.2479785E-2,1.1203144E0,7.980706E-2,-3.0825512E-2,2.8348665E0,-3.4049538E-1,1.2508682E0,5.592066E0,1.9253418E-1,3.258474E-3,-4.4244602E-1,1.8275158E-1,-2.452534E-1,1.1113777E1,2.759021E0,3.9353993E0,-4.209289E-1,1.0311724E0,1.8129276E1,1.1655697E0,-4.903439E-1,-3.9886326E-1,-4.1574743E-1,1.4016404E0,3.6686826E-2,-4.5909268E-1,-1.8525627E-1,2.471131E0,-3.7466433E-2,-4.8034477E-1,-4.84979E-1,-3.445305E-1,-4.5077094E-1,-9.111489E-2,-1.3823712E-1,2.751937E0,-3.718694E-2,-1.6822274E-1,-4.9056235E-1,-3.7328738E-1,1.0299822E0,1.8755168E-2,-2.3731364E-1,7.084761E0,3.4290957E0,5.4941297E0,-3.7663442E-1,1.8135892E0,4.1567636E0,5.1073383E1,2.1036576E-1,-1.5119292E-2,-3.2999027E-1,6.5848727E0,9.2016584E-1,3.0035666E1,-3.334057E-1,3.993824E0,-3.7360903E-2,-3.368133E-1,-4.9114513E-1,-2.8395918E-1,-3.7582308E-2,-4.8397714E-1,-1.16404094E-1,-4.7835153E-1,4.808061E0,-2.0966454E-1,2.6382813E-1,1.2467862E1,-4.6558335E-1,-2.458722E-2,3.6660378E1,2.046141E0,6.583184E0,-8.813123E-2,-4.913811E-1,-3.1210992E-1,-4.5740008E-1,5.3123096E-3,-1.6223553E-1,8.470804E0,-4.0369207E-1,1.7104226E-1,9.7557867E-1,5.4640145E0,5.456326E-1,-2.5606204E-2,7.8040237E0,-2.7683046E-1,2.772954E0,2.0165915E0,-1.2038869E-1,5.7609755E-1,1.6095452E-1,1.0405298E1,-4.2187107E-1,1.2737761E-1,-3.9698008E-1,2.2468737E-1,-3.6119333E-1,2.3516561E-1,-1.96182E-1,5.197734E0,-4.663335E-1,1.8570454E-1,-2.0474617E-1,4.3873152E-1,1.3048634E-1,6.2314315E0,3.0659943E0,2.721093E-1,6.066357E1,1.2418018E1,1.7899321E-1,1.9123312E1,-4.0197015E-1,1.2924317E0,1.4666431E0,2.6277304E1,4.2557287E0,4.812609E0,5.046701E-1,9.581998E0,-4.5658204E-1,7.3400486E-1,1.4544585E1,-2.2188553E-1,-4.9764383E-1,-4.2184487E-1,7.656042E-1,-4.279784E-1,3.522653E0,4.6940403E1,4.651767E0,-3.422046E-2,-3.9167318E-1,6.9889474E-1,8.024946E0,-2.4468502E-1,-2.5518507E-2,5.1074896E-2,-4.1680697E-1,7.021996E-1,-2.1626525E-2,4.476783E-1,4.8046913E0,5.58004E-1,1.369077E0,1.3287894E-1,-3.5390437E-2,3.667882E-1,2.1780424E0,2.2026577E0,-3.4584862E-1,1.9301258E-1,7.2654046E-2,-4.6701074E-1,5.413198E0,-5.864729E-2,4.0645143E-1,3.551154E-4,-4.2303324E-1,8.618489E-2,7.601515E-3,-3.6346134E-2,-4.436884E-1,1.7360342E-1,4.7653794E-2,1.5509895E0,4.708558E-1,-2.2700219E-1,-4.3102527E-1,2.4466889E-1,1.5161377E1,1.897215E-1,2.318749E0,8.894287E-2,4.559814E0,6.545329E-3,-4.9386308E-1,-4.2203933E-1,-4.82294E-1,-2.6003656E-1,-4.535428E-1,2.270884E-1,2.7320176E-1,8.093457E0,1.8459871E0,-3.1182724E-1,-4.6699506E-1,1.0285352E-2,-3.906287E-1,4.3166798E-1,6.753615E0,5.367268E-1,-3.74207E-2,-4.5092008E-1,-4.0592375E-1,-4.9135578E-1,-4.1033575E-1,3.592663E-1,-4.6015647E-1,5.696691E-1,-3.3168125E-1,3.0001712E0,-2.8698078E-1,8.5147005E-1,7.20816E0,7.0562524E-1,-2.1914585E-2,4.71344E-3,-3.7138827E-2,-4.366908E-1,-4.553026E-1,-8.4592365E-2,3.5866775E-2,-2.5211817E-2,-4.193765E-1,1.6219321E0,3.607298E-1,1.3604339E0,4.1031653E-1,8.972257E-1,-4.021933E-1,1.1870139E1,4.364091E-1,2.0636566E1,2.2490389E1,1.5172504E0,5.9318295E1,1.5882745E-1,-4.23156E-1,1.6942922E0,8.0531096E-1,-1.0010822E-2,-1.9459141E-2,1.0336121E1,9.55694E0,5.939311E1,-4.1408488E-1,1.0477672E0,4.7179016E-1,8.466667E-1,1.0859356E0,-4.0292916E-1,-3.7493866E-2,-4.4628274E-1,7.9357433E-1,-4.425941E-1,-3.7147507E-2,-3.839831E-1,-3.637164E-1,3.5541608E0,-4.9532965E-1,-3.73889E-1,2.260826E1,1.7528151E-1,8.620002E-1,-4.1771632E-1,-1.279674E-1,3.5395064E0,1.5359113E0,2.1486198E1,-4.7551554E-1,3.0354373E-3,1.057855E0,-4.031374E-1,4.644863E-1,3.7541409E0,-1.2728693E-1,4.453418E-1,1.1946054E0,9.663604E-1,-4.2776442E-1,1.4058928E0,-3.71848E-2,-4.4144186E-1,6.928717E-2,-4.096997E-1,-4.8724547E-1,-3.3572382E-1,3.5152936E0,-2.9560173E-1,-3.178221E-1,1.4898075E-1,1.419519E0,3.716055E-1,-4.6180212E-1,-2.382846E-1,1.1735985E0,-2.805554E-1,7.5535635E-3,9.7504574E-1,2.0173879E0,-4.4220006E-1,2.5693864E-1,-6.4088106E-3,-3.6561593E-1,1.0889732E-1,-3.4970936E-1,3.908241E0,1.1897289E0,-2.2194195E-3,-4.7515616E-1,-1.740117E-1,-4.667871E-1,4.9997475E-2,-3.293975E-2,1.6700031E-2,-4.2046747E-1,1.7406486E0,-6.829473E-3,6.630839E-1,-1.241707E-1,-4.8337469E-1,3.298597E0,-3.786411E-1,-4.1494218E-1,5.1958304E-2,-2.247131E-1,4.0692286E0,1.5013022E0,6.66767E-1,7.803238E-2,-2.2954702E-2,6.3129276E1,5.7141114E-2,1.3825812E0,2.015041E-1,-3.0054483E-1,1.5193659E-1,2.0309494E0,6.354315E-2,-4.355385E-1,8.077466E-1,1.0367825E1,-6.444998E-2,7.085537E0,-2.2926699E-1,3.2148979E0,1.9728179E0,8.75432E-1,5.892474E-1,-2.2168547E-1,1.9432899E0,1.5382837E0,1.8224243E0,-2.0900008E-1,-4.8850304E-1,-2.0032698E-1,1.1065595E1,1.4857032E0,3.367512E1,-3.9253512E-1,2.6864429E0,-3.7527874E-2,-4.704936E-1,-4.8289937E-1,-2.409816E-1,1.45317E-1,3.277183E-1,-7.470991E-2,-4.6960974E-1,1.2070546E1,2.9238874E-1,4.4672256E0,7.048863E0,2.0829449E0,1.7684875E1,-3.9508832E-1,1.0554309E0,-4.5396402E-1,-4.4238813E-2,2.0598757E0,1.6132744E-1,2.3855661E1,2.2185001E0,1.4201295E0,-4.0036216E-1,-3.383743E-2,3.8312275E-3,9.565661E-2,-1.9084906E-2,4.1748613E-2,-2.208342E-2,-1.7261907E-2,6.669413E-2,3.007995E-1,-5.3370465E-3,-3.5182275E-2,3.967841E-2,2.479537E0,-3.2615465E-1,-4.7659558E-1,3.79498E-2,1.0745401E0,9.302821E-2,1.2936585E0,-3.618112E-1,-4.736727E-1,1.4892532E-1,1.4154438E-2,-3.6590807E-2,-1.6045123E-3,-2.271157E-2,-1.0975248E-2,-4.8060206E-1,1.9195924E0,6.173461E-2,-3.3631417E-1,3.9506385E0,5.338919E-1,-1.355005E-2,9.3078844E-2,-3.1809396E-1,-3.7465733E-2,-3.5653327E-2,2.469974E-2,-3.557942E-2,-3.6859736E-2,-3.0331306E-2,-2.9391801E-2,4.0662754E-2,-3.567785E-2,4.5196153E-3,-8.202228E-3,2.9321852E-1,1.6881552E-1,-2.625007E-2,7.852962E-2,2.5063858E0,6.545351E-2,9.092141E-1,-2.8362805E-2,1.4919144E-1,-3.6775675E-2,-2.8316436E-2,-1.6686702E-2,1.3420556E-1,-9.141488E-3,-3.3724587E-2,9.362905E-2,-1.3907207E-2,2.5025654E-1,1.9789686E0,1.6775008E-2,3.9632165E-1,-3.653892E-2,-2.8657643E-2,-3.499193E-2,-3.3327856E-6,-3.7393615E-2,-3.518049E-2,-2.0903472E-2,-3.629678E-2,-7.3352107E-3,2.615228E-1,-3.5685696E-2,-1.854821E-2,-1.1430158E-2,3.477217E-1,-3.218832E-2,5.74128E-2,8.80633E-1,9.009325E-3,-3.138454E-2,1.49379885E-2,1.8233563E-1,-1.4394653E-2,8.8913774E-1,4.312524E-3,-4.52967E-3,1.7924975E-1,-3.549497E-2,-1.6078444E-2,-3.5669148E-2,-2.2604939E-2,5.8577374E-2,-2.3323048E-2,-3.522022E-2,1.9726422E-2,4.4468635E-1,-1.8259002E-2,8.864502E-2,-2.0295441E-2,1.00621E-1,-2.264839E-2,-3.2693263E-2,5.688713E-2,9.924192E-2,1.9032828E0,5.206802E-1,-8.4150955E-3,4.21284E0,1.08632274E-1,3.866768E0,2.4518676E-1,5.3828484E-1,3.786083E-2,1.5351259E0,4.9230638E0,-3.336863E-2,4.404455E-2,-1.870672E-2,4.951196E-1,-2.6654704E-2,2.8008103E-1,1.3217045E0,5.883743E-3,2.2610345E-1,2.7611246E0,4.957008E0,5.6099975E-1,-3.440075E-2,7.043203E-2,-2.4283396E-2,1.7901692E-1,1.547301E-1,-2.9942067E-2,3.1251892E-1,-2.3661211E-2,-3.490766E-2,-1.2119403E-2,-3.4310926E-2,6.500212E-2,3.09214E-1,-7.7429106E-3,-9.257488E-3,-3.5343073E-2,-3.454342E-2,-3.4092835E-3,5.597504E-2,-3.251573E-2,-6.9945203E-3,7.900892E-1,-3.7190355E-2,-1.7519003E-3,-3.359753E-2,3.012531E-2,2.606299E0,8.4269635E-2,2.1671611E-1,-2.1906348E-2,-1.1392317E-2,3.4385106E-1,-3.2989863E-2,1.1005911E-2,-2.4743585E-2,7.964676E-2,5.5381995E-2,7.6166517E-1,-6.5591843E-3,2.6774228E-1,1.9941634E0,1.1810803E-1,-1.47659E-2,-3.638052E-2,6.302197E-2,-3.0070653E-2,1.5268353E-3,2.829178E-1,-3.6319043E-2,-5.321061E-3,-2.8318426E-2,3.0425195E-2,-8.93324E-3,2.2968733E-1,-3.6066666E-2,1.6778424E-2,-1.1527419E-2,2.986839E-1,7.958654E-4,-3.6117036E-2,2.7710777E-3,-3.4666486E-2,-3.725974E-2,-2.9169641E-2,-3.3219572E-2,2.9858796E-2,6.636958E-1,3.2931745E-2,6.358221E-2,-2.8289096E-2,-3.1198006E-2,4.8164245E-2,6.261904E-2,-2.194344E-2,-3.5829604E-2,-1.768608E-2,-2.7628342E-2,2.4630351E-2,2.651153E-1,1.05447695E-2,-3.0599141E-2,1.2508032E-2,-2.2392467E-2,2.8471646E-1,-3.5102963E-2,2.047737E-2,-3.4116983E-2,2.1313543E-2,-3.491802E-2,2.398861E-2,-9.064584E-3,5.8291286E-1,-3.6137428E-2,2.7388882E-2,8.2428284E-2,-2.742346E-2,-3.554177E-2,-8.488336E-3,1.5061363E-2,-3.4237456E-2,-1.6820759E-2,2.3498155E-1,1.4825593E-1,-2.5111394E-2,-1.6545009E-2,-3.6560073E-2,4.4426683E-1,-9.230403E-3,-3.3966795E-2,3.704601E-2,-3.3063844E-2,-9.983968E-3,-2.780677E-2,7.635273E-2,7.928017E-1,3.68451E-2,-2.7983965E-2,2.4260645E-1,5.118573E0,2.3131495E0,-3.3413313E-2,2.3371192E-2,-3.3848405E-2,1.24221206E-1,6.7249614E-1,-1.3956414E-2,2.1352413E0,6.219753E-2,-2.4397068E-2,2.9271135E-1,2.3585508E0,2.0457283E-2,6.561086E-2,-2.7523004E-2,2.4162184E-1,-1.936367E-2,1.448158E-1,-2.011998E-2,-2.582056E-2,9.970946E-2,5.9207827E-1,1.2507577E-2,2.5566715E-1,-2.656732E-2,1.8338422E-1,-3.3406757E-2,-3.686154E-2,-5.448403E-3,2.3266576E-1,-3.1024758E-2,1.7222854E0,1.2605854E-2,3.3232597E-1,-9.633122E-3,7.4821234E-1,2.9489164E0,3.5678335E-2,-3.5800267E-2,3.454971E-1,-2.0844098E-2,-1.3089183E-2,-3.6567237E-2,-3.6465835E-2,-2.5807752E-3,9.798637E-3,-3.4178972E-2,-1.8742612E-2,8.862134E-2,-2.5014749E-2,7.6098174E-2,-3.6435246E-2,-1.8763654E-2,2.7537983E-4,1.6097333E0,-2.197142E-2,2.4820024E-1,8.1259865E-1,-1.8951736E-2,-5.7284636E-3,3.8090798E-1,2.064936E0,1.642641E-1,-3.222598E-2,4.698871E-2,2.308333E-1,-7.4434015E-3,-3.4566578E-2,2.2802738E-2,-1.149933E-2,1.9345811E-1,4.8742983E-1,3.5121087E-2,-2.9888969E-2,4.7305666E-2,7.35898E-2,2.7573493E0,-5.5893348E-3,5.7454056E-1,-1.0644089E-2,3.93358E-1,1.722043E-2,-3.349604E-2,3.324263E-1,-1.6887685E-2,-3.1485446E-2,4.2669334E-2,-2.519213E-2,-3.7137564E-2,-3.1421144E-2,9.9329405E-2,-2.3659708E-2,5.6580845E-2,2.508259E-1,-1.5039757E-2,-3.4454662E-2,1.703632E-2,-3.6189664E-2,-8.027565E-3,-2.3517579E-2,5.101552E-2,-2.165208E-2,3.0420995E-1,-3.690782E-2,-1.1763143E-2,-3.2754723E-2,1.5455967E-1,1.0342742E0,1.5732622E-2,-3.2615907E-2,1.4062679E-2],"categories":[],"categories_nodes":[],"categories_segments":[],"categories_sizes":[],"default_left":[0,0,0,0,0,0,0,0,0,0,0,0,0,0,0,0,0,0,0,0,0,0,0,0,0,0,0,0,0,0,0,0,0,0,0,0,0,0,0,0,0,0,0,0,0,0,0,0,0,0,0,0,0,0,0,0,0,0,0,0,0,0,0,0,0,0,0,0,0,0,0,0,0,0,0,0,0,0,0,0,0,0,0,0,0,0,0,0,0,0,0,0,0,0,0,0,0,0,0,0,0,0,0,0,0,0,0,0,0,0,0,0,0,0,0,0,0,0,0,0,0,0,0,0,0,0,0,0,0,0,0,0,0,0,0,0,0,0,0,0,0,0,0,0,0,0,0,0,0,0,0,0,0,0,0,0,0,0,0,0,0,0,0,0,0,0,0,0,0,0,0,0,0,0,0,0,0,0,0,0,0,0,0,0,0,0,0,0,0,0,0,0,0,0,0,0,0,0,0,0,0,0,0,0,0,0,0,0,0,0,0,0,0,0,0,0,0,0,0,0,0,0,0,0,0,0,0,0,0,0,0,0,0,0,0,0,0,0,0,0,0,0,0,0,0,0,0,0,0,0,0,0,0,0,0,0,0,0,0,0,0,0,0,0,0,0,0,0,0,0,0,0,0,0,0,0,0,0,0,0,0,0,0,0,0,0,0,0,0,0,0,0,0,0,0,0,0,0,0,0,0,0,0,0,0,0,0,0,0,0,0,0,0,0,0,0,0,0,0,0,0,0,0,0,0,0,0,0,0,0,0,0,0,0,0,0,0,0,0,0,0,0,0,0,0,0,0,0,0,0,0,0,0,0,0,0,0,0,0,0,0,0,0,0,0,0,0,0,0,0,0,0,0,0,0,0,0,0,0,0,0,0,0,0,0,0,0,0,0,0,0,0,0,0,0,0,0,0,0,0,0,0,0,0,0,0,0,0,0,0,0,0,0,0,0,0,0,0,0,0,0,0,0,0,0,0,0,0,0,0,0,0,0,0,0,0,0,0,0,0,0,0,0,0,0,0,0,0,0,0,0,0,0,0,0,0,0,0,0,0,0,0,0,0,0,0,0,0,0,0,0,0,0,0,0,0,0,0,0,0,0,0,0,0,0,0,0,0,0,0,0,0,0,0,0,0,0,0,0,0,0,0,0,0,0,0,0,0,0,0,0,0,0,0,0,0,0,0,0,0,0,0,0,0,0,0,0,0,0,0,0,0,0,0,0,0,0,0,0,0,0,0,0,0,0,0,0,0,0,0,0,0,0,0,0,0,0,0,0,0,0,0,0,0,0,0,0,0,0,0,0,0,0,0,0,0,0,0,0,0,0,0,0,0,0,0,0,0,0,0,0,0,0,0,0,0,0,0,0,0,0,0,0,0,0,0,0,0,0,0,0,0,0,0,0,0,0,0,0,0,0,0,0,0,0,0,0,0,0,0,0,0,0,0,0,0,0,0,0,0,0,0,0,0,0,0,0,0,0,0,0,0,0,0,0,0,0,0,0,0,0,0,0,0,0,0,0,0,0,0,0,0,0,0,0,0,0,0,0,0,0,0,0,0,0,0,0,0,0,0,0,0,0,0,0,0,0,0,0,0,0,0,0,0,0,0,0,0,0,0,0,0,0,0,0,0,0,0,0,0,0,0,0,0,0,0,0,0,0,0,0,0,0,0,0,0,0,0,0,0,0,0,0,0,0,0,0,0,0,0,0,0,0,0,0,0,0,0,0,0,0,0,0,0,0,0,0,0,0,0,0,0,0,0,0,0,0,0,0,0,0,0,0,0,0,0,0,0,0,0,0,0,0,0,0,0,0,0,0,0,0,0,0,0,0,0,0,0,0,0,0,0,0,0,0,0,0,0,0,0,0,0,0,0,0,0,0,0,0,0,0,0,0,0,0,0,0,0,0,0,0,0,0,0,0,0,0,0,0,0,0,0,0,0,0,0,0,0,0,0,0,0,0,0,0,0,0,0,0,0,0,0,0,0,0,0,0,0,0,0,0,0,0,0,0,0,0,0,0,0,0,0,0,0,0,0,0,0,0,0,0,0,0,0,0,0,0,0,0,0,0,0,0,0,0,0,0,0,0,0,0,0,0,0,0,0,0,0,0,0,0,0,0,0,0,0,0,0,0,0,0,0,0,0,0,0,0,0,0,0,0,0,0,0,0,0,0,0,0],"id":0,"left_children":[1,3,5,7,9,11,13,15,17,19,21,23,25,27,29,31,33,35,37,39,41,43,45,47,49,51,53,55,57,59,61,63,65,67,69,71,73,75,77,79,81,83,85,87,89,91,93,95,97,99,101,103,105,107,109,111,113,115,117,119,121,123,125,127,129,-1,-1,131,133,135,137,139,141,143,145,147,149,151,153,155,157,159,161,163,165,167,169,171,173,175,177,179,-1,181,183,185,187,189,191,193,195,197,199,201,203,-1,205,207,209,211,213,-1,215,217,-1,219,-1,-1,-1,221,223,225,-1,227,229,231,233,235,237,239,241,-1,243,-1,245,247,249,251,253,255,-1,257,259,261,263,265,-1,267,269,271,273,275,277,279,281,283,285,287,289,291,293,295,297,299,301,303,305,307,-1,309,311,-1,-1,-1,-1,-1,-1,313,-1,315,-1,317,-1,319,321,323,325,327,329,331,333,335,337,339,341,343,345,347,349,351,353,-1,-1,355,-1,357,-1,359,361,363,365,367,369,371,373,-1,-1,-1,-1,375,377,-1,-1,-1,-1,379,-1,381,383,385,-1,387,389,391,393,395,397,399,401,403,405,407,409,-1,411,413,415,417,419,421,423,-1,425,427,429,-1,431,433,435,-1,437,439,441,443,445,-1,-1,447,449,451,453,455,457,-1,459,461,463,-1,465,467,469,471,473,475,477,479,481,483,485,487,489,491,493,495,497,499,501,503,505,-1,-1,-1,-1,507,509,-1,511,513,-1,515,517,519,-1,521,-1,523,-1,525,527,529,531,533,-1,535,537,-1,539,541,543,545,547,549,551,553,555,-1,557,559,561,563,565,567,569,571,573,575,577,579,581,583,585,587,589,591,593,-1,-1,595,597,-1,-1,-1,-1,-1,599,-1,601,603,-1,605,-1,607,609,611,613,-1,-1,615,-1,-1,-1,617,-1,-1,-1,-1,619,621,-1,623,625,-1,-1,627,629,631,633,635,637,639,641,643,645,647,649,651,653,655,657,659,661,-1,663,665,667,669,671,673,675,677,679,681,683,685,687,-1,-1,-1,689,691,693,-1,-1,695,697,699,-1,701,-1,703,705,707,709,711,713,715,-1,717,719,-1,-1,721,723,725,727,729,731,733,-1,735,737,-1,739,741,743,-1,745,747,749,751,753,755,757,759,761,763,765,767,769,771,773,775,777,-1,-1,779,-1,-1,781,783,785,-1,787,-1,789,791,793,795,797,799,-1,-1,801,803,805,807,809,-1,-1,811,813,-1,-1,815,-1,817,819,-1,-1,821,823,825,-1,-1,-1,827,829,-1,-1,831,833,835,837,839,-1,841,843,-1,845,-1,-1,847,-1,-1,-1,849,-1,-1,-1,851,853,855,857,859,861,-1,863,-1,865,867,869,871,-1,873,875,877,879,881,883,885,887,-1,889,891,893,895,-1,897,899,901,903,-1,905,907,909,911,913,915,917,919,921,923,925,927,929,-1,-1,-1,-1,-1,-1,-1,-1,-1,-1,-1,-1,931,933,935,937,-1,939,941,943,945,947,-1,-1,-1,-1,949,951,-1,-1,953,955,-1,-1,-1,957,-1,-1,-1,-1,-1,-1,-1,-1,-1,-1,-1,-1,-1,-1,-1,-1,-1,-1,-1,-1,-1,-1,-1,-1,-1,-1,-1,-1,-1,-1,-1,-1,-1,-1,-1,-1,-1,-1,-1,-1,-1,-1,-1,-1,-1,-1,-1,-1,-1,-1,-1,-1,-1,-1,-1,-1,-1,-1,-1,-1,-1,-1,-1,-1,-1,-1,-1,-1,-1,-1,-1,-1,-1,-1,-1,-1,-1,-1,-1,-1,-1,-1,-1,-1,-1,-1,-1,-1,-1,-1,-1,-1,-1,-1,-1,-1,-1,-1,-1,-1,-1,-1,-1,-1,-1,-1,-1,-1,-1,-1,-1,-1,-1,-1,-1,-1,-1,-1,-1,-1,-1,-1,-1,-1,-1,-1,-1,-1,-1,-1,-1,-1,-1,-1,-1,-1,-1,-1,-1,-1,-1,-1,-1,-1,-1,-1,-1,-1,-1,-1,-1,-1,-1,-1,-1,-1,-1,-1,-1,-1,-1,-1,-1,-1,-1,-1,-1,-1,-1,-1,-1,-1,-1,-1,-1,-1,-1,-1,-1,-1,-1,-1,-1,-1,-1,-1,-1,-1,-1,-1,-1,-1,-1,-1,-1,-1,-1,-1,-1,-1,-1,-1,-1,-1,-1,-1,-1,-1,-1,-1,-1,-1,-1,-1,-1,-1,-1,-1,-1,-1,-1,-1,-1,-1,-1,-1,-1,-1,-1,-1,-1,-1,-1,-1,-1,-1,-1,-1,-1,-1,-1,-1,-1,-1,-1,-1,-1,-1,-1,-1,-1,-1,-1,-1,-1,-1,-1,-1,-1,-1,-1,-1,-1,-1,-1,-1,-1,-1,-1,-1,-1,-1,-1,-1,-1,-1,-1,-1,-1,-1,-1,-1,-1,-1,-1,-1,-1,-1,-1,-1,-1,-1,-1,-1,-1,-1,-1,-1,-1,-1,-1,-1,-1,-1,-1,-1,-1,-1,-1,-1,-1,-1,-1,-1,-1,-1,-1,-1,-1,-1,-1,-1,-1,-1,-1,-1,-1,-1],"loss_changes":[1.9822214E5,8.788453E3,1.03483025E6,1.1760762E3,3.5155613E4,3.3154594E4,1.8834954E6,1.03884766E2,5.2083667E3,2.4213694E3,1.8486155E5,7.2042993E3,1.6394189E5,2.1750075E5,2.5616076E4,8.9459814E2,8.990234E0,3.6948617E4,3.29354E2,2.2918744E2,1.160431E4,1.4261667E5,2.4514429E3,5.160178E4,4.6270557E2,6.839903E4,5.694759E3,4.0948E4,1.8167898E4,4.4185266E4,2.0009457E3,3.3305322E2,7.4609467E2,2.3730469E0,1.2933472E1,8.489875E4,1.2264116E4,1.292511E3,1.9492188E1,1.3489739E3,2.3220398E1,3.372305E4,4.2015857E2,1.29568125E4,2.9012847E3,5.1660547E3,1.5705942E2,6.177357E4,5.6084956E3,4.2875732E1,1.8679325E3,2.0164938E4,1.9402955E3,1.0689039E4,2.4958977E2,1.135E4,3.802785E2,3.257926E2,3.641629E3,8.8501875E3,4.8941937E2,6.5358555E3,4.937878E2,8.4154785E1,7.2193866E2,0E0,0E0,4.2871094E-1,5.04187E0,5.9947906E1,1.5272217E0,1.7996773E4,3.8974546E3,7.183175E3,6.545881E3,6.4117524E3,2.3817352E1,3.9924316E0,1.2108902E2,2.901568E2,3.1548987E3,4.9067383E0,6.0494698E1,1.0692754E4,2.156975E3,1.5153098E3,6.932791E1,6.3213125E3,2.3981683E2,1.8191313E3,4.1416702E2,5.54505E2,0E0,9.345014E2,2.7750443E1,2.5889272E3,2.746296E4,9.079779E2,1.3252687E4,3.102873E2,6.6464844E0,5.3074316E3,1.5210252E2,4.1789062E3,1.0355295E2,0E0,1.4727888E2,4.738826E3,3.7735327E2,7.622541E2,5.4657494E1,0E0,1.7769147E2,3.3453605E0,0E0,3.5568615E1,0E0,0E0,0E0,1.2318438E3,4.334731E0,1.7025198E1,0E0,4.6588306E2,5.108129E3,1.23618126E2,7.902671E2,2.6443848E1,3.7234842E2,1.0671277E2,1.0996842E3,0E0,8.1933594E-1,0E0,1.042157E1,1.6788116E1,9.595228E1,1.1828613E-1,4.123993E0,2.4225346E2,0E0,3.0031528E2,3.1211855E3,1.3994807E3,1.837937E4,8.994583E0,0E0,1.5240067E2,1.2635215E4,1.2818483E2,5.611206E0,1.3581238E1,3.173828E-1,1.4412277E1,3.25842E2,1.222536E3,1.8532784E1,3.2736353E3,2.9802942E2,5.028076E-1,1.7949478E1,3.4835712E2,2.1240936E1,2.0935078E3,6.534097E1,2.1187904E2,1.5208818E3,1.0976511E2,0E0,2.971656E2,1.2715572E1,0E0,0E0,0E0,0E0,0E0,0E0,2.568383E1,0E0,2.4165243E1,0E0,8.90228E1,0E0,9.219658E0,7.7272285E1,3.0238235E2,2.9246821E3,7.2668906E3,9.737343E2,1.9933052E2,2.8730874E3,9.238367E3,4.3811176E2,7.253137E1,1.7096924E3,1.7528076E0,1.9818491E1,1.0510249E4,4.275833E2,5.0009842E1,1.0587844E3,0E0,0E0,1.2722516E0,0E0,3.2855475E0,0E0,3.4061337E1,1.9846621E3,4.199884E2,1.908452E0,7.9846747E2,1.5980116E1,6.1128387E0,1.3797722E2,0E0,0E0,0E0,0E0,2.8483109E1,5.057168E0,0E0,0E0,0E0,0E0,7.1850634E-1,0E0,1.9798672E1,3.8871783E2,5.149289E1,0E0,3.0805237E1,7.506522E2,7.6998706E2,4.7438744E1,4.7148438E0,4.3588318E1,2.107866E1,9.770296E2,3.436926E2,8.019318E0,5.3385044E1,2.0508657E3,0E0,2.05188E0,7.102356E-1,3.56746E1,1.3778107E1,1.0850333E2,6.963275E0,1.3558699E2,0E0,1.15576014E-1,3.6514282E-2,1.0768986E1,0E0,8.6218154E-1,2.5115795E1,4.450272E2,0E0,1.9057816E2,7.4248376E2,8.622019E3,4.4101265E3,3.5976934E3,0E0,0E0,6.1987923E1,9.1276E1,4.147063E2,1.2738037E4,7.730893E0,1.9112186E2,0E0,2.6071695E1,3.5272217E-1,7.064883E1,0E0,2.6189575E0,1.1509234E2,1.6004028E0,1.3508931E3,1.4096342E1,1.04091255E2,8.696897E2,2.7373962E0,4.749576E1,2.0251226E3,5.5480232E1,4.1283502E2,1.9995909E1,2.3880005E-1,3.196168E0,1.8907013E0,1.06020744E2,1.3857798E1,4.4292993E2,5.144905E0,3.3522793E1,0E0,0E0,0E0,0E0,1.3767422E2,1.978906E1,0E0,1.0376716E1,6.939866E0,0E0,6.4864876E1,1.7749588E2,4.402584E0,0E0,3.4332657E0,0E0,6.1502934E-1,0E0,1.4441684E1,6.618422E1,2.6081772E0,4.210351E1,2.307587E0,0E0,9.851418E1,6.939055E2,0E0,2.3304791E0,6.0723438E3,2.4399481E2,1.1129161E1,5.0389636E2,5.5623703E1,9.020632E2,4.8581042E2,1.9988955E3,0E0,1.9604453E2,4.8723263E1,6.784018E2,8.650177E0,5.212892E2,2.2266025E3,2.9327244E1,1.7358398E-1,3.9769135E0,3.7074615E1,1.1487179E0,5.7217145E2,3.5357676E3,7.4994006E2,4.5452347E1,2.4929993E1,3.1677734E1,1.5565295E3,3.5373894E1,0E0,0E0,2.9383016E-1,2.0660968E0,0E0,0E0,0E0,0E0,0E0,8.0303735E-1,0E0,1.2932597E0,1.5418987E1,0E0,2.0047574E0,0E0,2.3027775E1,1.6156845E0,2.679273E2,1.0863049E1,0E0,0E0,1.111989E0,0E0,0E0,0E0,1.0739183E0,0E0,0E0,0E0,0E0,4.8748463E-2,1.6431763E1,0E0,5.0987408E2,1.2166627E2,0E0,0E0,3.8524067E1,4.4009457E0,1.8076172E0,3.9904648E1,1.4837646E0,1.5029617E2,9.317184E0,6.065061E1,1.388281E2,3.2979663E3,8.6991486E2,7.053452E1,4.252289E0,1.561909E1,4.952732E0,5.3341213E1,5.0827236E3,2.5434401E2,0E0,3.861206E0,3.456379E0,3.4210205E-2,6.6674423E0,9.487128E1,4.543091E0,3.978538E1,1.477279E1,2.6388486E2,2.6673276E0,1.071078E1,1.5703E2,1.5215284E1,0E0,0E0,0E0,6.195488E-1,9.657364E-1,2.027247E1,0E0,0E0,2.4042673E0,5.4824203E1,2.807273E0,0E0,3.3000245E0,0E0,9.2408875E1,6.703185E2,1.1117996E3,1.538152E4,6.248482E3,4.625531E2,5.865625E2,0E0,7.1073875E0,1.399E2,0E0,0E0,5.6306168E1,3.1649307E2,2.4264653E3,2.6022637E3,4.2072716E0,7.930908E0,9.416987E0,0E0,5.4733826E1,3.8641052E0,0E0,4.0513916E0,1.590685E2,3.2252655E0,0E0,6.6382446E0,9.49738E0,2.0482095E2,2.0904541E-1,8.500866E0,8.440608E2,1.866013E1,3.9733143E1,7.1797276E-1,1.7914349E1,1.5302046E2,1.75348E1,4.6006128E2,1.4375153E0,4.799442E0,8.451938E1,2.2784605E0,0E0,0E0,8.375394E-1,0E0,0E0,1.4381205E1,1.2119303E0,2.9997688E1,0E0,3.228115E0,0E0,5.4122424E-1,2.3126984E-1,9.195103E0,1.2616707E2,8.945568E0,3.8246732E0,0E0,0E0,1.4795355E0,1.3396149E0,1.0751847E1,5.5510475E1,2.9954314E0,0E0,0E0,1.5670298E1,1.0015745E0,0E0,0E0,1.009768E0,0E0,2.4856102E0,6.417364E1,0E0,0E0,1.7408829E0,1.5446627E1,4.695511E-2,0E0,0E0,0E0,7.42888E-1,1.0196558E1,0E0,0E0,1.0864897E1,3.609085E-1,3.3710285E1,1.5573082E0,9.231329E-3,0E0,1.2163585E1,1.3026419E2,0E0,2.150898E1,0E0,0E0,4.4703906E3,0E0,0E0,0E0,1.052978E0,0E0,0E0,0E0,4.4466446E1,3.024931E2,1.6213732E3,6.81952E1,1.9518285E3,6.402486E0,0E0,9.592768E0,0E0,6.7171025E0,6.467936E0,1.6369182E2,1.8827732E1,0E0,8.155047E1,1.1807098E0,3.6718735E1,5.766794E2,3.1290947E1,9.605762E1,4.2532167E0,1.9977787E1,0E0,2.5465546E0,3.9340973E-1,7.6845956E0,6.613231E0,0E0,3.066211E0,1.3365078E-1,6.452034E2,2.9500587E1,0E0,8.62852E1,1.3471179E2,5.0971667E2,3.3353348E0,6.747775E1,5.2700806E0,5.0875732E1,8.388457E1,8.778976E0,1.3211116E3,1.741885E2,7.066661E1,3.7035904E0,0E0,0E0,0E0,0E0,0E0,0E0,0E0,0E0,0E0,0E0,0E0,0E0,1.8990501E1,1.9774668E0,6.803436E-1,4.7133307E0,0E0,1.4705393E0,1.5567953E1,1.3396635E0,5.6385994E-2,1.1188425E0,0E0,0E0,0E0,0E0,9.644236E1,2.5517578E0,0E0,0E0,1.3966593E1,2.7472913E2,0E0,0E0,0E0,5.958799E-1,0E0,0E0,0E0,0E0,0E0,0E0,0E0,0E0,0E0,0E0,0E0,0E0,0E0,0E0,0E0,0E0,0E0,0E0,0E0,0E0,0E0,0E0,0E0,0E0,0E0,0E0,0E0,0E0,0E0,0E0,0E0,0E0,0E0,0E0,0E0,0E0,0E0,0E0,0E0,0E0,0E0,0E0,0E0,0E0,0E0,0E0,0E0,0E0,0E0,0E0,0E0,0E0,0E0,0E0,0E0,0E0,0E0,0E0,0E0,0E0,0E0,0E0,0E0,0E0,0E0,0E0,0E0,0E0,0E0,0E0,0E0,0E0,0E0,0E0,0E0,0E0,0E0,0E0,0E0,0E0,0E0,0E0,0E0,0E0,0E0,0E0,0E0,0E0,0E0,0E0,0E0,0E0,0E0,0E0,0E0,0E0,0E0,0E0,0E0,0E0,0E0,0E0,0E0,0E0,0E0,0E0,0E0,0E0,0E0,0E0,0E0,0E0,0E0,0E0,0E0,0E0,0E0,0E0,0E0,0E0,0E0,0E0,0E0,0E0,0E0,0E0,0E0,0E0,0E0,0E0,0E0,0E0,0E0,0E0,0E0,0E0,0E0,0E0,0E0,0E0,0E0,0E0,0E0,0E0,0E0,0E0,0E0,0E0,0E0,0E0,0E0,0E0,0E0,0E0,0E0,0E0,0E0,0E0,0E0,0E0,0E0,0E0,0E0,0E0,0E0,0E0,0E0,0E0,0E0,0E0,0E0,0E0,0E0,0E0,0E0,0E0,0E0,0E0,0E0,0E0,0E0,0E0,0E0,0E0,0E0,0E0,0E0,0E0,0E0,0E0,0E0,0E0,0E0,0E0,0E0,0E0,0E0,0E0,0E0,0E0,0E0,0E0,0E0,0E0,0E0,0E0,0E0,0E0,0E0,0E0,0E0,0E0,0E0,0E0,0E0,0E0,0E0,0E0,0E0,0E0,0E0,0E0,0E0,0E0,0E0,0E0,0E0,0E0,0E0,0E0,0E0,0E0,0E0,0E0,0E0,0E0,0E0,0E0,0E0,0E0,0E0,0E0,0E0,0E0,0E0,0E0,0E0,0E0,0E0,0E0,0E0,0E0,0E0,0E0,0E0,0E0,0E0,0E0,0E0,0E0,0E0,0E0,0E0,0E0,0E0,0E0,0E0,0E0,0E0,0E0,0E0,0E0,0E0,0E0,0E0,0E0,0E0,0E0,0E0,0E0,0E0,0E0,0E0,0E0,0E0,0E0,0E0,0E0,0E0,0E0,0E0,0E0,0E0,0E0,0E0,0E0,0E0,0E0,0E0,0E0,0E0,0E0,0E0,0E0,0E0,0E0,0E0,0E0,0E0,0E0,0E0,0E0,0E0,0E0,0E0,0E0,0E0,0E0,0E0,0E0,0E0,0E0,0E0,0E0,0E0,0E0,0E0,0E0],"parents":[2147483647,0,0,1,1,2,2,3,3,4,4,5,5,6,6,7,7,8,8,9,9,10,10,11,11,12,12,13,13,14,14,15,15,16,16,17,17,18,18,19,19,20,20,21,21,22,22,23,23,24,24,25,25,26,26,27,27,28,28,29,29,30,30,31,31,32,32,33,33,34,34,35,35,36,36,37,37,38,38,39,39,40,40,41,41,42,42,43,43,44,44,45,45,46,46,47,47,48,48,49,49,50,50,51,51,52,52,53,53,54,54,55,55,56,56,57,57,58,58,59,59,60,60,61,61,62,62,63,63,64,64,67,67,68,68,69,69,70,70,71,71,72,72,73,73,74,74,75,75,76,76,77,77,78,78,79,79,80,80,81,81,82,82,83,83,84,84,85,85,86,86,87,87,88,88,89,89,90,90,91,91,93,93,94,94,95,95,96,96,97,97,98,98,99,99,100,100,101,101,102,102,103,103,104,104,106,106,107,107,108,108,109,109,110,110,112,112,113,113,115,115,119,119,120,120,121,121,123,123,124,124,125,125,126,126,127,127,128,128,129,129,130,130,132,132,134,134,135,135,136,136,137,137,138,138,139,139,141,141,142,142,143,143,144,144,145,145,147,147,148,148,149,149,150,150,151,151,152,152,153,153,154,154,155,155,156,156,157,157,158,158,159,159,160,160,161,161,162,162,163,163,164,164,165,165,166,166,167,167,169,169,170,170,177,177,179,179,181,181,183,183,184,184,185,185,186,186,187,187,188,188,189,189,190,190,191,191,192,192,193,193,194,194,195,195,196,196,197,197,198,198,199,199,200,200,203,203,205,205,207,207,208,208,209,209,210,210,211,211,212,212,213,213,214,214,219,219,220,220,225,225,227,227,228,228,229,229,231,231,232,232,233,233,234,234,235,235,236,236,237,237,238,238,239,239,240,240,241,241,242,242,244,244,245,245,246,246,247,247,248,248,249,249,250,250,252,252,253,253,254,254,256,256,257,257,258,258,260,260,261,261,262,262,263,263,264,264,267,267,268,268,269,269,270,270,271,271,272,272,274,274,275,275,276,276,278,278,279,279,280,280,281,281,282,282,283,283,284,284,285,285,286,286,287,287,288,288,289,289,290,290,291,291,292,292,293,293,294,294,295,295,296,296,297,297,298,298,303,303,304,304,306,306,307,307,309,309,310,310,311,311,313,313,315,315,317,317,318,318,319,319,320,320,321,321,323,323,324,324,326,326,327,327,328,328,329,329,330,330,331,331,332,332,333,333,334,334,336,336,337,337,338,338,339,339,340,340,341,341,342,342,343,343,344,344,345,345,346,346,347,347,348,348,349,349,350,350,351,351,352,352,353,353,354,354,357,357,358,358,364,364,366,366,367,367,369,369,371,371,372,372,373,373,374,374,377,377,381,381,386,386,387,387,389,389,390,390,393,393,394,394,395,395,396,396,397,397,398,398,399,399,400,400,401,401,402,402,403,403,404,404,405,405,406,406,407,407,408,408,409,409,410,410,412,412,413,413,414,414,415,415,416,416,417,417,418,418,419,419,420,420,421,421,422,422,423,423,424,424,428,428,429,429,430,430,433,433,434,434,435,435,437,437,439,439,440,440,441,441,442,442,443,443,444,444,445,445,447,447,448,448,451,451,452,452,453,453,454,454,455,455,456,456,457,457,459,459,460,460,462,462,463,463,464,464,466,466,467,467,468,468,469,469,470,470,471,471,472,472,473,473,474,474,475,475,476,476,477,477,478,478,479,479,480,480,481,481,482,482,485,485,488,488,489,489,490,490,492,492,494,494,495,495,496,496,497,497,498,498,499,499,502,502,503,503,504,504,505,505,506,506,509,509,510,510,513,513,515,515,516,516,519,519,520,520,521,521,525,525,526,526,529,529,530,530,531,531,532,532,533,533,535,535,536,536,538,538,541,541,545,545,549,549,550,550,551,551,552,552,553,553,554,554,556,556,558,558,559,559,560,560,561,561,563,563,564,564,565,565,566,566,567,567,568,568,569,569,570,570,572,572,573,573,574,574,575,575,577,577,578,578,579,579,580,580,582,582,583,583,584,584,585,585,586,586,587,587,588,588,589,589,590,590,591,591,592,592,593,593,594,594,607,607,608,608,609,609,610,610,612,612,613,613,614,614,615,615,616,616,621,621,622,622,625,625,626,626,630,630],"right_children":[2,4,6,8,10,12,14,16,18,20,22,24,26,28,30,32,34,36,38,40,42,44,46,48,50,52,54,56,58,60,62,64,66,68,70,72,74,76,78,80,82,84,86,88,90,92,94,96,98,100,102,104,106,108,110,112,114,116,118,120,122,124,126,128,130,-1,-1,132,134,136,138,140,142,144,146,148,150,152,154,156,158,160,162,164,166,168,170,172,174,176,178,180,-1,182,184,186,188,190,192,194,196,198,200,202,204,-1,206,208,210,212,214,-1,216,218,-1,220,-1,-1,-1,222,224,226,-1,228,230,232,234,236,238,240,242,-1,244,-1,246,248,250,252,254,256,-1,258,260,262,264,266,-1,268,270,272,274,276,278,280,282,284,286,288,290,292,294,296,298,300,302,304,306,308,-1,310,312,-1,-1,-1,-1,-1,-1,314,-1,316,-1,318,-1,320,322,324,326,328,330,332,334,336,338,340,342,344,346,348,350,352,354,-1,-1,356,-1,358,-1,360,362,364,366,368,370,372,374,-1,-1,-1,-1,376,378,-1,-1,-1,-1,380,-1,382,384,386,-1,388,390,392,394,396,398,400,402,404,406,408,410,-1,412,414,416,418,420,422,424,-1,426,428,430,-1,432,434,436,-1,438,440,442,444,446,-1,-1,448,450,452,454,456,458,-1,460,462,464,-1,466,468,470,472,474,476,478,480,482,484,486,488,490,492,494,496,498,500,502,504,506,-1,-1,-1,-1,508,510,-1,512,514,-1,516,518,520,-1,522,-1,524,-1,526,528,530,532,534,-1,536,538,-1,540,542,544,546,548,550,552,554,556,-1,558,560,562,564,566,568,570,572,574,576,578,580,582,584,586,588,590,592,594,-1,-1,596,598,-1,-1,-1,-1,-1,600,-1,602,604,-1,606,-1,608,610,612,614,-1,-1,616,-1,-1,-1,618,-1,-1,-1,-1,620,622,-1,624,626,-1,-1,628,630,632,634,636,638,640,642,644,646,648,650,652,654,656,658,660,662,-1,664,666,668,670,672,674,676,678,680,682,684,686,688,-1,-1,-1,690,692,694,-1,-1,696,698,700,-1,702,-1,704,706,708,710,712,714,716,-1,718,720,-1,-1,722,724,726,728,730,732,734,-1,736,738,-1,740,742,744,-1,746,748,750,752,754,756,758,760,762,764,766,768,770,772,774,776,778,-1,-1,780,-1,-1,782,784,786,-1,788,-1,790,792,794,796,798,800,-1,-1,802,804,806,808,810,-1,-1,812,814,-1,-1,816,-1,818,820,-1,-1,822,824,826,-1,-1,-1,828,830,-1,-1,832,834,836,838,840,-1,842,844,-1,846,-1,-1,848,-1,-1,-1,850,-1,-1,-1,852,854,856,858,860,862,-1,864,-1,866,868,870,872,-1,874,876,878,880,882,884,886,888,-1,890,892,894,896,-1,898,900,902,904,-1,906,908,910,912,914,916,918,920,922,924,926,928,930,-1,-1,-1,-1,-1,-1,-1,-1,-1,-1,-1,-1,932,934,936,938,-1,940,942,944,946,948,-1,-1,-1,-1,950,952,-1,-1,954,956,-1,-1,-1,958,-1,-1,-1,-1,-1,-1,-1,-1,-1,-1,-1,-1,-1,-1,-1,-1,-1,-1,-1,-1,-1,-1,-1,-1,-1,-1,-1,-1,-1,-1,-1,-1,-1,-1,-1,-1,-1,-1,-1,-1,-1,-1,-1,-1,-1,-1,-1,-1,-1,-1,-1,-1,-1,-1,-1,-1,-1,-1,-1,-1,-1,-1,-1,-1,-1,-1,-1,-1,-1,-1,-1,-1,-1,-1,-1,-1,-1,-1,-1,-1,-1,-1,-1,-1,-1,-1,-1,-1,-1,-1,-1,-1,-1,-1,-1,-1,-1,-1,-1,-1,-1,-1,-1,-1,-1,-1,-1,-1,-1,-1,-1,-1,-1,-1,-1,-1,-1,-1,-1,-1,-1,-1,-1,-1,-1,-1,-1,-1,-1,-1,-1,-1,-1,-1,-1,-1,-1,-1,-1,-1,-1,-1,-1,-1,-1,-1,-1,-1,-1,-1,-1,-1,-1,-1,-1,-1,-1,-1,-1,-1,-1,-1,-1,-1,-1,-1,-1,-1,-1,-1,-1,-1,-1,-1,-1,-1,-1,-1,-1,-1,-1,-1,-1,-1,-1,-1,-1,-1,-1,-1,-1,-1,-1,-1,-1,-1,-1,-1,-1,-1,-1,-1,-1,-1,-1,-1,-1,-1,-1,-1,-1,-1,-1,-1,-1,-1,-1,-1,-1,-1,-1,-1,-1,-1,-1,-1,-1,-1,-1,-1,-1,-1,-1,-1,-1,-1,-1,-1,-1,-1,-1,-1,-1,-1,-1,-1,-1,-1,-1,-1,-1,-1,-1,-1,-1,-1,-1,-1,-1,-1,-1,-1,-1,-1,-1,-1,-1,-1,-1,-1,-1,-1,-1,-1,-1,-1,-1,-1,-1,-1,-1,-1,-1,-1,-1,-1,-1,-1,-1,-1,-1,-1,-1,-1,-1,-1,-1,-1,-1,-1,-1,-1,-1,-1,-1,-1,-1,-1,-1,-1,-1,-1,-1,-1,-1,-1,-1,-1,-1,-1,-1,-1,-1,-1,-1,-1,-1,-1],"split_conditions":[3.1758065E0,2.6153054E0,2.0431921E0,1.9592032E0,2.3104205E0,1.4365817E0,7.9437923E-1,1.6107057E-1,5.412746E-2,1.4703519E0,8.993133E-1,1.381363E-4,7.9437923E-1,3.9573985E-1,1.1684549E0,6.2895384E0,1.8859388E0,7.431901E-3,3.9573985E-1,9.006562E-2,9.529933E-1,4.1020843E-1,1.2226045E0,9.006562E-2,6.20691E-1,6.3103163E-1,1.3839629E0,4.637054E-1,1.3651335E-1,1.172717E0,1.5680703E0,1.5969905E0,1.9570636E0,2.4244668E0,9.123697E-1,1.552988E-2,7.424045E0,1.114087E0,1.8859388E0,6.1763644E-1,1.6840979E0,1.535564E-1,1.3036554E0,4.617097E-1,1.7754985E-1,2.2883139E0,1.7221138E0,1.0096263E0,1.5777159E-1,4.560289E-5,4.6519584E-5,5.0315976E-1,9.58531E-2,4.826485E-1,1.7730325E0,8.2260835E-1,5.3064394E-1,1.6719415E0,3.9946404E-1,8.2421994E-1,5.744474E-1,1.0848815E-1,2.928636E0,3.9391458E0,9.025073E-1,2.0614974E0,1.5435443E-2,9.8678744E-1,1.1107743E0,9.5348597E-1,4.13758E-1,3.9797828E-1,5.036162E-1,2.2598972E0,8.4195167E-1,5.1492935E-1,1.4896011E0,8.225522E-1,1.7805547E0,1.381363E-4,1.5994787E-1,2.4308439E-1,4.0098564E-3,3.2308224E-1,3.358465E-1,2.2528303E0,1.7730325E0,1.0401074E0,1.0831051E0,1.5150502E0,2.7400023E-1,9.3078357E-1,3.6174464E0,1.9601868E0,2.981594E0,6.666725E-1,1.4543186E-1,2.4995646E0,6.3184224E-2,1.9839679E-1,3.5582786E0,1.4002979E-1,8.3271194E-1,6.1473244E-1,5.149812E-1,2.2200348E0,1.5160252E-1,4.0082157E-1,8.9014834E-1,7.588848E-1,2.0058615E0,6.1201053E0,1.1779444E0,1.2211723E0,1.0989755E0,3.970077E-1,8.963308E-1,4.6391296E0,1.4617985E-1,1.5154643E-1,7.441171E-1,9.215E-1,1.011516E0,8.468531E-1,6.0309565E-1,1.7066376E0,2.8127108E0,2.0058615E0,1.265177E0,9.703632E-3,8.2543564E-1,-3.7631202E-2,2.977432E-1,-3.7408825E-2,1.0012348E0,2.732942E0,8.0429244E-1,5.1780076E0,7.6398623E-1,2.3032504E-1,5.700013E0,5.3762585E-1,2.1274565E-1,5.8987117E-1,3.2284698E0,6.636831E-1,4.7495184E0,4.647889E0,7.207254E-1,6.2007195E-1,1.3482097E0,4.722292E-1,6.898803E-1,7.0396584E-1,2.0289773E-1,1.8443456E0,5.911281E-1,5.838434E-1,7.383148E-1,3.5877423E0,1.0604465E0,8.707702E-1,4.0328404E-1,3.5353026E-1,1.2344899E0,1.2767807E-1,1.6529004E-1,1.7713869E0,1.921729E0,1.3791922E0,4.285681E0,6.0049915E0,1.0077632E-1,1.1723248E0,3.5997597E-3,3.2303805E0,6.069919E-2,2.1026754E0,1.0789518E0,1.0883853E0,1.2349766E0,1.1921606E0,1.511184E0,1.6439068E0,1.8067335E0,2.0162382E0,1.2406268E0,1.2880348E0,6.0522234E-1,1.0899165E-2,5.0774746E0,2.935136E-1,8.9511627E-1,4.6404353E-1,1.120352E-2,3.3820486E-1,1.2835515E0,1.0347051E-5,5.772698E-1,2.984692E0,1.4633425E0,5.9101176E0,5.5739194E-1,1.8945348E-2,6.969446E-1,6.0533714E-1,5.7087225E-1,2.4671469E-2,7.359765E-1,1.1090102E0,1.9119209E0,1.9191913E-1,2.687625E0,2.1684597E0,9.692122E-1,1.2479785E-2,1.1203144E0,7.980706E-2,-3.0825512E-2,1.1360179E0,8.8511753E-1,1.2508682E0,5.592066E0,1.9253418E-1,3.258474E-3,1.3389238E0,1.8275158E-1,6.159024E-1,2.62409E-1,8.6789614E-1,3.9353993E0,2.7741048E0,2.9743052E-1,1.2406268E0,1.9558617E-1,2.1060283E0,1.0452851E0,7.381454E-1,6.421761E-1,6.636831E-1,3.4098537E0,3.5872847E-1,5.5378277E-2,-3.7466433E-2,1.4675252E0,3.4250182E-1,1.1639342E0,4.3113704E0,2.6379077E0,1.8735775E0,2.3654227E-1,-3.718694E-2,5.460227E-1,1.4474179E0,1.3710392E0,1.0299822E0,7.594294E-1,6.6319555E-1,8.707702E-1,3.4290957E0,1.1015437E0,5.6867223E0,1.2847418E0,1.0992471E0,9.7993386E-1,2.1036576E-1,-1.5119292E-2,3.4396857E-1,7.808817E-1,7.095958E-1,1.5458425E0,7.095958E-1,1.7823986E0,-3.7360903E-2,1.778845E-1,1.0781572E0,1.1684549E0,-3.7582308E-2,2.0627086E0,5.102477E-1,1.4834477E0,5.838434E-1,7.806139E-1,1.1495956E0,4.5258507E-1,3.5865706E-1,9.123697E-1,1.21078745E-1,3.0217236E-1,6.7385453E-1,6.6319555E-1,2.732942E0,1.4555815E0,7.2925866E-1,2.3222524E-1,5.8641523E-1,7.806139E-1,8.223971E-1,1.0514514E0,9.7557867E-1,5.4640145E0,5.456326E-1,-2.5606204E-2,6.6267896E-1,4.6612114E-1,2.772954E0,1.1257701E0,5.9491086E-1,5.7609755E-1,5.179335E-1,1.187337E0,2.2650881E-1,1.2737761E-1,8.8511753E-1,2.2468737E-1,9.6250707E-1,2.3516561E-1,1.1956042E0,9.852164E-2,5.4663096E-2,2.5719008E0,2.0024757E-1,4.3873152E-1,1.1197408E-1,7.8351945E-1,3.0659943E0,1.3113456E0,3.4732888E0,2.8112957E0,1.0038283E0,2.0383916E0,1.3681767E0,3.0688068E-3,3.545709E-1,8.15625E-2,4.2557287E0,8.1582177E-1,4.5649096E-1,5.8482796E-1,5.000994E-1,6.824523E-1,1.410391E0,3.0364852E0,2.9561505E-1,6.632445E-1,1.0839075E0,1.1956428E0,3.4233544E0,6.1473244E-1,5.130031E-1,8.551208E-1,1.0318671E0,4.361463E-1,3.234084E-1,2.1684597E0,-2.5518507E-2,5.1074896E-2,1.8098588E0,1.5942522E0,-2.1626525E-2,4.476783E-1,4.8046913E0,5.58004E-1,1.369077E0,1.7689289E0,-3.5390437E-2,4.2190984E-1,2.1396408E0,2.2026577E0,1.1678321E0,1.9301258E-1,7.588848E-1,3.3235538E0,3.1458037E0,1.825119E0,4.0645143E-1,3.551154E-4,6.5355676E-1,8.618489E-2,7.601515E-3,-3.6346134E-2,1.3113456E0,1.7360342E-1,4.7653794E-2,1.5509895E0,4.708558E-1,1.0912449E0,1.7317184E0,2.4466889E-1,7.995075E-1,7.9364485E-1,2.318749E0,8.894287E-2,3.1565254E0,7.542979E-1,1.6562011E0,1.3244647E-5,1.0432363E0,1.4651132E0,1.2492422E0,3.2504966E0,5.6318727E-6,4.2250445E-1,3.1553686E0,2.4002006E0,2.5981767E0,1.0262663E0,5.225541E-2,7.202494E-1,1.2847418E0,1.404574E0,-3.74207E-2,9.934058E-1,4.5543596E-1,2.623694E-1,1.0625705E0,2.0373394E0,5.1369405E-1,1.2148178E0,8.1420046E-1,8.7142247E-1,2.2872005E0,9.4204974E-1,3.9713552E0,1.1642895E0,-2.1914585E-2,4.71344E-3,-3.7138827E-2,4.6994257E-1,1.5048736E0,1.6757243E0,3.5866775E-2,-2.5211817E-2,2.101866E0,4.6304464E-1,6.701943E-1,1.3604339E0,5.168315E-1,8.972257E-1,2.4390647E0,2.5297878E0,3.9023632E-1,1.6426897E0,3.279593E-1,1.394019E-1,8.476784E-6,1.5882745E-1,2.742185E0,3.1155264E-1,8.0531096E-1,-1.0010822E-2,1.6900988E0,5.586513E-1,6.846949E0,1.3876716E0,2.2099915E0,1.4635757E0,3.5448056E-1,8.466667E-1,7.3022467E-1,1.2233641E0,-3.7493866E-2,2.8652918E0,7.668179E-2,1.7984313E0,-3.7147507E-2,2.10092E0,5.989239E-2,1.1795214E0,8.647945E0,5.3502053E-1,6.9936365E-1,1.3107388E0,1.0472692E0,2.6967685E0,1.410391E0,9.5814484E-1,6.8412125E-1,1.9552076E0,3.890802E-2,8.4286743E-1,8.310823E-1,9.9851173E-1,4.644863E-1,3.7541409E0,1.5392424E0,4.453418E-1,1.1946054E0,5.8482796E-1,7.9608315E-1,4.6405652E-1,-3.71848E-2,4.6612114E-1,6.928717E-2,7.384312E-2,1.54786E0,9.9327207E-1,1.6072716E0,6.7492384E-1,8.3259714E-1,1.4898075E-1,1.419519E0,1.4971153E0,3.5364888E0,1.2443299E0,8.2200205E-1,1.1185482E0,7.5535635E-3,9.7504574E-1,9.905149E-2,2.0739584E0,2.5693864E-1,-6.4088106E-3,2.1929896E0,1.0889732E-1,2.1848047E0,1.1334133E0,1.1897289E0,-2.2194195E-3,2.9902406E0,6.1473244E-1,3.277374E0,4.9997475E-2,-3.293975E-2,1.6700031E-2,1.1590383E-6,1.4635757E0,-6.829473E-3,6.630839E-1,5.5622107E-1,1.8226771E0,2.2010462E0,3.4513488E0,1.8945348E-2,5.1958304E-2,7.0810074E-1,2.4826741E-1,1.5013022E0,5.14482E-1,7.803238E-2,-2.2954702E-2,1.4795845E0,5.7141114E-2,1.3825812E0,2.015041E-1,2.2297971E0,1.5193659E-1,2.0309494E0,6.354315E-2,3.5805156E0,7.312478E-6,2.6550987E-1,6.8356323E-1,8.017915E-1,7.795011E-1,3.2148979E0,1.8328615E0,8.75432E-1,6.0169643E-1,6.018792E-1,1.3836689E0,9.7413164E-1,1.8224243E0,6.626682E-1,3.142334E0,5.8979416E-1,1.2967106E0,7.373951E-1,6.24032E-1,2.605209E-1,3.4314555E-1,-3.7527874E-2,1.2211723E0,4.304382E0,1.619735E0,1.4446051E0,3.277183E-1,7.004205E-1,1.1466031E0,6.0424733E-1,2.222941E-1,4.4672256E0,2.826602E0,7.4656034E-1,4.400907E-1,3.5185401E0,1.2431226E0,3.1435733E0,3.6836712E0,5.9819824E-1,4.09905E-1,8.044754E-1,1.7639045E0,9.3078357E-1,2.5464387E0,-3.383743E-2,3.8312275E-3,9.565661E-2,-1.9084906E-2,4.1748613E-2,-2.208342E-2,-1.7261907E-2,6.669413E-2,3.007995E-1,-5.3370465E-3,-3.5182275E-2,3.967841E-2,1.5353522E0,1.0079288E0,2.8974357E0,7.463363E-1,1.0745401E0,2.6762575E-1,1.2894067E0,1.208592E0,2.3291624E0,1.6067721E-1,1.4154438E-2,-3.6590807E-2,-1.6045123E-3,-2.271157E-2,9.0881604E-1,1.8464805E0,1.9195924E0,6.173461E-2,4.056666E0,2.7586231E0,5.338919E-1,-1.355005E-2,9.3078844E-2,6.26533E-1,-3.7465733E-2,-3.5653327E-2,2.469974E-2,-3.557942E-2,-3.6859736E-2,-3.0331306E-2,-2.9391801E-2,4.0662754E-2,-3.567785E-2,4.5196153E-3,-8.202228E-3,2.9321852E-1,1.6881552E-1,-2.625007E-2,7.852962E-2,2.5063858E0,6.545351E-2,9.092141E-1,-2.8362805E-2,1.4919144E-1,-3.6775675E-2,-2.8316436E-2,-1.6686702E-2,1.3420556E-1,-9.141488E-3,-3.3724587E-2,9.362905E-2,-1.3907207E-2,2.5025654E-1,1.9789686E0,1.6775008E-2,3.9632165E-1,-3.653892E-2,-2.8657643E-2,-3.499193E-2,-3.3327856E-6,-3.7393615E-2,-3.518049E-2,-2.0903472E-2,-3.629678E-2,-7.3352107E-3,2.615228E-1,-3.5685696E-2,-1.854821E-2,-1.1430158E-2,3.477217E-1,-3.218832E-2,5.74128E-2,8.80633E-1,9.009325E-3,-3.138454E-2,1.49379885E-2,1.8233563E-1,-1.4394653E-2,8.8913774E-1,4.312524E-3,-4.52967E-3,1.7924975E-1,-3.549497E-2,-1.6078444E-2,-3.5669148E-2,-2.2604939E-2,5.8577374E-2,-2.3323048E-2,-3.522022E-2,1.9726422E-2,4.4468635E-1,-1.8259002E-2,8.864502E-2,-2.0295441E-2,1.00621E-1,-2.264839E-2,-3.2693263E-2,5.688713E-2,9.924192E-2,1.9032828E0,5.206802E-1,-8.4150955E-3,4.21284E0,1.08632274E-1,3.866768E0,2.4518676E-1,5.3828484E-1,3.786083E-2,1.5351259E0,4.9230638E0,-3.336863E-2,4.404455E-2,-1.870672E-2,4.951196E-1,-2.6654704E-2,2.8008103E-1,1.3217045E0,5.883743E-3,2.2610345E-1,2.7611246E0,4.957008E0,5.6099975E-1,-3.440075E-2,7.043203E-2,-2.4283396E-2,1.7901692E-1,1.547301E-1,-2.9942067E-2,3.1251892E-1,-2.3661211E-2,-3.490766E-2,-1.2119403E-2,-3.4310926E-2,6.500212E-2,3.09214E-1,-7.7429106E-3,-9.257488E-3,-3.5343073E-2,-3.454342E-2,-3.4092835E-3,5.597504E-2,-3.251573E-2,-6.9945203E-3,7.900892E-1,-3.7190355E-2,-1.7519003E-3,-3.359753E-2,3.012531E-2,2.606299E0,8.4269635E-2,2.1671611E-1,-2.1906348E-2,-1.1392317E-2,3.4385106E-1,-3.2989863E-2,1.1005911E-2,-2.4743585E-2,7.964676E-2,5.5381995E-2,7.6166517E-1,-6.5591843E-3,2.6774228E-1,1.9941634E0,1.1810803E-1,-1.47659E-2,-3.638052E-2,6.302197E-2,-3.0070653E-2,1.5268353E-3,2.829178E-1,-3.6319043E-2,-5.321061E-3,-2.8318426E-2,3.0425195E-2,-8.93324E-3,2.2968733E-1,-3.6066666E-2,1.6778424E-2,-1.1527419E-2,2.986839E-1,7.958654E-4,-3.6117036E-2,2.7710777E-3,-3.4666486E-2,-3.725974E-2,-2.9169641E-2,-3.3219572E-2,2.9858796E-2,6.636958E-1,3.2931745E-2,6.358221E-2,-2.8289096E-2,-3.1198006E-2,4.8164245E-2,6.261904E-2,-2.194344E-2,-3.5829604E-2,-1.768608E-2,-2.7628342E-2,2.4630351E-2,2.651153E-1,1.05447695E-2,-3.0599141E-2,1.2508032E-2,-2.2392467E-2,2.8471646E-1,-3.5102963E-2,2.047737E-2,-3.4116983E-2,2.1313543E-2,-3.491802E-2,2.398861E-2,-9.064584E-3,5.8291286E-1,-3.6137428E-2,2.7388882E-2,8.2428284E-2,-2.742346E-2,-3.554177E-2,-8.488336E-3,1.5061363E-2,-3.4237456E-2,-1.6820759E-2,2.3498155E-1,1.4825593E-1,-2.5111394E-2,-1.6545009E-2,-3.6560073E-2,4.4426683E-1,-9.230403E-3,-3.3966795E-2,3.704601E-2,-3.3063844E-2,-9.983968E-3,-2.780677E-2,7.635273E-2,7.928017E-1,3.68451E-2,-2.7983965E-2,2.4260645E-1,5.118573E0,2.3131495E0,-3.3413313E-2,2.3371192E-2,-3.3848405E-2,1.24221206E-1,6.7249614E-1,-1.3956414E-2,2.1352413E0,6.219753E-2,-2.4397068E-2,2.9271135E-1,2.3585508E0,2.0457283E-2,6.561086E-2,-2.7523004E-2,2.4162184E-1,-1.936367E-2,1.448158E-1,-2.011998E-2,-2.582056E-2,9.970946E-2,5.9207827E-1,1.2507577E-2,2.5566715E-1,-2.656732E-2,1.8338422E-1,-3.3406757E-2,-3.686154E-2,-5.448403E-3,2.3266576E-1,-3.1024758E-2,1.7222854E0,1.2605854E-2,3.3232597E-1,-9.633122E-3,7.4821234E-1,2.9489164E0,3.5678335E-2,-3.5800267E-2,3.454971E-1,-2.0844098E-2,-1.3089183E-2,-3.6567237E-2,-3.6465835E-2,-2.5807752E-3,9.798637E-3,-3.4178972E-2,-1.8742612E-2,8.862134E-2,-2.5014749E-2,7.6098174E-2,-3.6435246E-2,-1.8763654E-2,2.7537983E-4,1.6097333E0,-2.197142E-2,2.4820024E-1,8.1259865E-1,-1.8951736E-2,-5.7284636E-3,3.8090798E-1,2.064936E0,1.642641E-1,-3.222598E-2,4.698871E-2,2.308333E-1,-7.4434015E-3,-3.4566578E-2,2.2802738E-2,-1.149933E-2,1.9345811E-1,4.8742983E-1,3.5121087E-2,-2.9888969E-2,4.7305666E-2,7.35898E-2,2.7573493E0,-5.5893348E-3,5.7454056E-1,-1.0644089E-2,3.93358E-1,1.722043E-2,-3.349604E-2,3.324263E-1,-1.6887685E-2,-3.1485446E-2,4.2669334E-2,-2.519213E-2,-3.7137564E-2,-3.1421144E-2,9.9329405E-2,-2.3659708E-2,5.6580845E-2,2.508259E-1,-1.5039757E-2,-3.4454662E-2,1.703632E-2,-3.6189664E-2,-8.027565E-3,-2.3517579E-2,5.101552E-2,-2.165208E-2,3.0420995E-1,-3.690782E-2,-1.1763143E-2,-3.2754723E-2,1.5455967E-1,1.0342742E0,1.5732622E-2,-3.2615907E-2,1.4062679E-2],"split_indices":[112,112,40,40,40,40,68,96,62,40,68,96,68,62,68,93,112,89,62,73,68,73,68,73,43,73,68,96,54,35,68,93,36,9,96,73,1,68,112,40,81,73,68,37,62,111,68,93,61,51,62,37,62,35,68,24,90,90,37,96,13,54,90,56,90,0,0,9,95,61,61,71,52,93,93,13,68,62,77,96,105,61,51,37,54,111,68,62,0,0,54,71,0,111,90,40,62,48,62,40,111,37,40,96,8,0,54,82,96,96,90,0,41,96,0,20,0,0,0,79,14,22,0,13,71,71,68,90,13,51,95,0,48,0,52,111,82,43,81,14,0,61,14,13,48,33,0,41,93,71,9,13,71,62,96,93,107,24,105,43,123,93,61,82,92,62,117,71,0,71,90,0,0,0,0,0,0,77,0,95,0,71,0,71,85,1,24,28,82,61,112,37,40,54,62,43,99,61,37,111,68,0,0,21,0,13,0,21,62,24,95,54,111,68,24,0,0,0,0,50,13,0,0,0,0,92,0,125,71,96,0,67,103,24,14,112,95,13,98,33,84,95,51,0,85,96,40,43,41,84,51,0,92,8,9,0,14,1,93,0,123,121,112,89,68,0,0,13,59,47,41,47,41,0,89,52,68,0,85,47,95,24,96,93,22,40,96,84,8,24,1,111,51,81,96,93,96,52,96,0,0,0,0,85,73,0,59,67,0,67,14,61,0,13,0,111,0,1,22,110,68,21,0,40,29,0,35,23,121,79,97,79,62,51,37,0,103,65,79,96,93,1,1,61,65,40,68,114,96,40,81,121,37,126,68,0,0,7,0,0,0,0,0,0,72,0,9,110,0,93,0,96,8,119,24,0,0,61,0,0,0,35,0,0,0,0,50,119,0,59,90,0,0,18,120,95,73,93,112,40,41,37,112,41,84,41,98,68,89,112,40,0,93,52,52,120,93,61,86,69,17,41,105,15,79,0,0,0,81,43,96,0,0,79,14,14,0,35,0,41,30,75,119,73,45,117,0,93,27,0,0,112,75,1,19,112,9,37,0,37,43,0,47,94,68,0,1,73,95,1,34,14,24,61,61,1,82,82,23,97,0,48,71,0,0,95,0,0,79,21,82,0,73,0,44,93,47,4,96,54,0,0,103,123,93,51,52,0,0,7,90,0,0,95,0,111,95,0,0,67,96,93,0,0,0,103,9,0,0,62,68,35,41,21,0,22,120,0,84,0,0,92,0,0,0,95,0,0,0,108,62,37,40,18,73,0,58,0,117,40,4,55,0,12,8,50,96,35,84,62,62,0,96,1,68,121,0,40,1,95,34,0,2,81,14,8,37,106,1,62,52,71,85,71,68,0,0,0,0,0,0,0,0,0,0,0,0,46,43,68,85,0,118,110,81,53,49,0,0,0,0,71,90,0,0,41,68,0,0,0,10,0,0,0,0,0,0,0,0,0,0,0,0,0,0,0,0,0,0,0,0,0,0,0,0,0,0,0,0,0,0,0,0,0,0,0,0,0,0,0,0,0,0,0,0,0,0,0,0,0,0,0,0,0,0,0,0,0,0,0,0,0,0,0,0,0,0,0,0,0,0,0,0,0,0,0,0,0,0,0,0,0,0,0,0,0,0,0,0,0,0,0,0,0,0,0,0,0,0,0,0,0,0,0,0,0,0,0,0,0,0,0,0,0,0,0,0,0,0,0,0,0,0,0,0,0,0,0,0,0,0,0,0,0,0,0,0,0,0,0,0,0,0,0,0,0,0,0,0,0,0,0,0,0,0,0,0,0,0,0,0,0,0,0,0,0,0,0,0,0,0,0,0,0,0,0,0,0,0,0,0,0,0,0,0,0,0,0,0,0,0,0,0,0,0,0,0,0,0,0,0,0,0,0,0,0,0,0,0,0,0,0,0,0,0,0,0,0,0,0,0,0,0,0,0,0,0,0,0,0,0,0,0,0,0,0,0,0,0,0,0,0,0,0,0,0,0,0,0,0,0,0,0,0,0,0,0,0,0,0,0,0,0,0,0,0,0,0,0,0,0,0,0,0,0,0,0,0,0,0,0,0,0,0,0,0,0,0,0,0,0,0,0,0,0,0,0,0,0,0,0,0,0,0,0,0,0,0,0,0,0,0,0,0,0,0,0,0,0,0,0,0,0,0,0,0,0,0,0],"split_type":[0,0,0,0,0,0,0,0,0,0,0,0,0,0,0,0,0,0,0,0,0,0,0,0,0,0,0,0,0,0,0,0,0,0,0,0,0,0,0,0,0,0,0,0,0,0,0,0,0,0,0,0,0,0,0,0,0,0,0,0,0,0,0,0,0,0,0,0,0,0,0,0,0,0,0,0,0,0,0,0,0,0,0,0,0,0,0,0,0,0,0,0,0,0,0,0,0,0,0,0,0,0,0,0,0,0,0,0,0,0,0,0,0,0,0,0,0,0,0,0,0,0,0,0,0,0,0,0,0,0,0,0,0,0,0,0,0,0,0,0,0,0,0,0,0,0,0,0,0,0,0,0,0,0,0,0,0,0,0,0,0,0,0,0,0,0,0,0,0,0,0,0,0,0,0,0,0,0,0,0,0,0,0,0,0,0,0,0,0,0,0,0,0,0,0,0,0,0,0,0,0,0,0,0,0,0,0,0,0,0,0,0,0,0,0,0,0,0,0,0,0,0,0,0,0,0,0,0,0,0,0,0,0,0,0,0,0,0,0,0,0,0,0,0,0,0,0,0,0,0,0,0,0,0,0,0,0,0,0,0,0,0,0,0,0,0,0,0,0,0,0,0,0,0,0,0,0,0,0,0,0,0,0,0,0,0,0,0,0,0,0,0,0,0,0,0,0,0,0,0,0,0,0,0,0,0,0,0,0,0,0,0,0,0,0,0,0,0,0,0,0,0,0,0,0,0,0,0,0,0,0,0,0,0,0,0,0,0,0,0,0,0,0,0,0,0,0,0,0,0,0,0,0,0,0,0,0,0,0,0,0,0,0,0,0,0,0,0,0,0,0,0,0,0,0,0,0,0,0,0,0,0,0,0,0,0,0,0,0,0,0,0,0,0,0,0,0,0,0,0,0,0,0,0,0,0,0,0,0,0,0,0,0,0,0,0,0,0,0,0,0,0,0,0,0,0,0,0,0,0,0,0,0,0,0,0,0,0,0,0,0,0,0,0,0,0,0,0,0,0,0,0,0,0,0,0,0,0,0,0,0,0,0,0,0,0,0,0,0,0,0,0,0,0,0,0,0,0,0,0,0,0,0,0,0,0,0,0,0,0,0,0,0,0,0,0,0,0,0,0,0,0,0,0,0,0,0,0,0,0,0,0,0,0,0,0,0,0,0,0,0,0,0,0,0,0,0,0,0,0,0,0,0,0,0,0,0,0,0,0,0,0,0,0,0,0,0,0,0,0,0,0,0,0,0,0,0,0,0,0,0,0,0,0,0,0,0,0,0,0,0,0,0,0,0,0,0,0,0,0,0,0,0,0,0,0,0,0,0,0,0,0,0,0,0,0,0,0,0,0,0,0,0,0,0,0,0,0,0,0,0,0,0,0,0,0,0,0,0,0,0,0,0,0,0,0,0,0,0,0,0,0,0,0,0,0,0,0,0,0,0,0,0,0,0,0,0,0,0,0,0,0,0,0,0,0,0,0,0,0,0,0,0,0,0,0,0,0,0,0,0,0,0,0,0,0,0,0,0,0,0,0,0,0,0,0,0,0,0,0,0,0,0,0,0,0,0,0,0,0,0,0,0,0,0,0,0,0,0,0,0,0,0,0,0,0,0,0,0,0,0,0,0,0,0,0,0,0,0,0,0,0,0,0,0,0,0,0,0,0,0,0,0,0,0,0,0,0,0,0,0,0,0,0,0,0,0,0,0,0,0,0,0,0,0,0,0,0,0,0,0,0,0,0,0,0,0,0,0,0,0,0,0,0,0,0,0,0,0,0,0,0,0,0,0,0,0,0,0,0,0,0,0,0,0,0,0,0,0,0,0,0,0,0,0,0,0,0,0,0,0,0,0,0,0,0,0,0,0,0,0,0,0,0,0,0,0,0,0,0,0,0,0,0,0,0,0,0,0,0,0,0,0,0,0,0,0,0,0,0,0,0,0,0,0,0,0,0,0,0,0,0,0,0,0,0,0,0,0,0,0,0,0,0,0,0,0,0,0,0,0,0,0,0,0,0,0,0,0,0,0,0,0,0,0,0,0,0,0,0,0,0,0,0,0,0,0,0,0,0,0,0,0,0,0,0,0,0,0,0,0,0,0,0,0,0,0,0,0,0,0,0,0,0,0,0,0,0,0,0,0,0,0,0,0,0,0,0,0],"sum_hessian":[1.3863739E5,1.2620576E5,1.2431631E4,1.20828234E5,5.377519E3,1.091044E4,1.5211908E3,1.0175785E5,1.907038E4,4.7271904E3,6.5032825E2,1.0407771E4,5.026695E2,5.608177E2,9.6037305E2,2.8617889E4,7.313997E4,2.905013E3,1.6165367E4,4.2636147E3,4.6357584E2,1.10025894E2,5.4030237E2,1.691255E3,8.716516E3,7.242316E1,4.3024634E2,5.1327454E2,4.7543186E1,4.797719E1,9.123959E2,2.8614842E4,3.048109E0,6.651071E4,6.6292534E3,1.1173588E2,2.793277E3,1.9948339E3,1.4170534E4,8.4317145E2,3.4204434E3,7.024048E1,3.9333536E2,6.3145393E1,4.68805E1,1.5544012E1,5.247583E2,1.4105772E2,1.5501973E3,7.2093706E3,1.5071456E3,5.1011986E1,2.1411171E1,2.9859642E1,4.0038672E2,5.0607828E2,7.1962633E0,4.0480297E1,7.06289E0,1.6726463E1,3.1250725E1,4.6649414E1,8.6574646E2,2.5245957E4,3.3688843E3,1.1051056E0,1.9430033E0,5.883474E4,7.675974E3,1.6128718E3,5.016382E3,2.798644E1,8.374944E1,2.7868118E3,6.465334E0,3.930856E2,1.6017483E3,1.2964354E4,1.2061803E3,7.885994E2,5.4571983E1,2.7595342E3,6.609091E2,1.4670133E1,5.5570347E1,1.85476E1,3.7478775E2,6.017873E1,2.966663E0,3.4371696E0,4.3443333E1,1.3343722E1,2.20029E0,3.4522434E1,4.902359E2,8.3103615E1,5.7954105E1,1.4862804E3,6.391685E1,1.2233054E3,5.986065E3,1.627351E2,1.3444105E3,4.6869877E1,4.142107E0,1.656737E0,1.9754433E1,8.095381E0,2.1764261E1,2.0122202E1,3.802645E2,5.0366003E2,2.4182482E0,5.6038885E0,1.5923748E0,3.9075504E1,1.4047933E0,5.791746E0,1.2711438E0,1.4627032E1,2.099431E0,2.9408314E1,1.8424102E0,3.8962124E1,7.6872926E0,8.5195715E2,1.3789304E1,2.425495E4,9.9100836E2,2.7028572E3,6.660271E2,4.5299918E4,1.353482E4,5.106356E3,2.5696182E3,1.5538043E3,5.90676E1,3.5468857E3,1.469496E3,4.416223E0,2.3570217E1,7.626318E1,7.4862547E0,2.6877485E3,9.906326E1,2.7375185E0,3.7278154E0,3.2610373E2,6.698187E1,7.1130035E1,1.5306182E3,1.8722859E3,1.1092067E4,1.1301425E3,7.603777E1,8.790937E1,7.0069006E2,1.019169E1,4.4380295E1,2.096452E3,6.630822E2,4.2877937E1,6.180312E2,1.1335907E1,3.3342252E0,5.128021E1,4.290139E0,1.6656075E1,1.8915255E0,3.4290874E1,3.404969E2,5.9106075E1,1.0726559E0,1.0427356E0,1.9239274E0,1.7618588E0,1.6753107E0,4.241055E1,1.0327817E0,1.1757814E1,1.5859075E0,3.295304E1,1.5693951E0,4.78857E2,1.1378899E1,7.698134E1,6.122277E0,4.4451866E1,1.350224E1,1.4323015E3,5.3978886E1,1.3655231E1,5.026162E1,1.1592261E3,6.407939E1,5.890704E3,9.5360794E1,